{
"has_gp_model": 1,
"booster_str": "tree\nversion=v3\nnum_class=1\nnum_tree_per_iteration=1\nlabel_index=0\nmax_feature_idx=12\nobjective=regression\nfeature_names=Column_0 Column_1 Column_2 Column_3 Column_4 Column_5 Column_6 Column_7 Column_8 Column_9 Column_10 Column_11 Column_12\nfeature_infos=[1:97] [139:170] [1:4] [4:10] [0:3] [0:1] [0:1] [0:0] [0:1] [0:1] [0:1] [0:1] [0:1]\ntree_sizes=1410 1482 1469 1477 1467 1461 1487 1455 1491 1475 1481 1467 1453 1465 1465 1454 1460 1461 1456 1462 1477 1467 1470 1483 1474 1489 1460 1480 1493 1478 1483 1481 1456 1455 1457 1476 1489 1461 1465 1467 1466 1474 1479 1477 1464 1468 1475 1473 1471 1486 1477 1467 1470 1462 1484 1452 1481 1483 1477 1430 1484 1463 1462 1436 1476 1478 1454 1481 1472 1488 1470 1440 1471 1487 1469 1460 1430 1486 1458 1473 1469 1483 1484 1483 1481 1463 1475 1457 1474 1462 1479 1473 1460 1459 1452 1461 1471 1497 1473 1463 1463 1435 1500 1478 1484 1476 1476 1508 1497 1471 1490 1499 1494 1504 1488 1483 1502 1473 1484 1475 1504 1460 1451 1489 1478 1483 1477 1466 1484 1460 1492 1481 1503 1492 1489 1468 1509 1495 1476 1503 1486 1486 1492 1490 1490 1505 1473 1461 1471 1502 1466 1488 1485 1493 1493 1491 1447 1491 1474 1470 1512 1510 1509 1495 1504 1502 1503 1449 1495 1495 1508 1501 1493 1452 1501 1476 1499 1493 1506 1496 1503 1493 1485 1505 1493 1475 1496 1491 1492 1498 1520 1503 1477 1503 1502 1505 1498 1513 1494 1502 1476 1500 1495 1510 1487 1501 1498 1505 1493 1500 1478 1503 1473 1503 1493 1494 1505 1484 1491 1512 1502 1488 1464 1505 1464 1500 1471 1498 1490 1480 1474 1496 1499 1493 1486 1497 1479 1476 1490 1500 1498 1495 1502 1492 1502 1487 1495 1476 1482 1478 1501 1499 1477 1511 1491 1454 1481 1465 1490 1497 1471 1492 1480 1476 1473 1517 1489 1508 1484 1491 1491 1479 1482 1486 1491 1493 1474 1464 1462 1485 1484 1491 1474 1491 1501 1492 1498 1463 1486 1514 1474 1505 1478 1484 1497 1504 1493 1482 1456 1507\n\nTree=0\nnum_leaves=15\nnum_cat=0\nsplit_feature=2 5 0 11 0 6 11 0 5 0 2 0 0 0\nsplit_gain=69.0145 14.2956 5.99597 4.23398 4.55363 3.83752 1.90235 1.87739 1.76074 1.28966 1.20811 0.85981 1.19345 0.853476\nthreshold=3.5000000000000004 1.0000000180025095e-35 3.5205000000000006 1.0000000180025095e-35 3.8050000000000002 inf 1.0000000180025095e-35 3.0050000000000003 1.0000000180025095e-35 3.5450000000000004 2.5000000000000004 3.8450000000000002 3.9545000000000008 3.0900000000000003\ndecision_type=8 10 8 2 10 8 2 10 10 8 10 10 8 10\nleft_child=5 2 7 4 9 -1 -3 -2 10 -4 -7 -6 -13 -9\nright_child=1 6 3 -5 11 8 -8 13 -10 -11 -12 12 -14 -15\nleaf_value=0.68048792127782609 0.66717931459941504 0.68077422994754477 0.68165780972828205 0.67866623019543548 0.68060807951962066 0.68657105188294931 0.6883062104718225 0.67749839422131963 0.6910874266543614 0.6731844967932219 0.68203488640439758 0.67485077313758024 0.67853766309491548 0.67127005854095334\nleaf_weight=334 310 272 44 472 130 835 125 56 191 5943 192 568 355 1185\nleaf_count=334 310 272 44 472 130 835 125 56 191 5943 192 568 355 1185\ninternal_value=0.675523 0.673912 0.673504 0.67409 0.673782 0.685284 0.683184 0.670674 0.686591 0.673249 0.685735 0.67681 0.676265 0.671557\ninternal_weight=0 9460 9063 7512 7040 1552 397 1551 1218 5987 1027 1053 923 1241\ninternal_count=11012 9460 9063 7512 7040 1552 397 1551 1218 5987 1027 1053 923 1241\nis_linear=0\nshrinkage=1\n\n\nTree=1\nnum_leaves=15\nnum_cat=0\nsplit_feature=4 11 5 0 0 5 1 0 1 5 3 1 0 0\nsplit_gain=44.2969 20.8408 7.84903 6.0022 3.44739 3.32606 2.0487 1.65559 1.3854 1.22804 1.22297 1.21201 1.09506 0.977046\nthreshold=1.0000000180025095e-35 1.0000000180025095e-35 1.0000000180025095e-35 3.5205000000000006 3.8050000000000002 1.0000000180025095e-35 160.50000000000003 3.0050000000000003 163.50000000000003 1.0000000180025095e-35 5.5000000000000009 168.50000000000003 3.7705000000000006 3.5450000000000004\ndecision_type=2 2 10 8 10 10 10 8 10 8 10 10 10 8\nleft_child=1 2 3 6 11 -3 7 -1 9 -6 -7 12 13 -5\nright_child=-2 5 -4 4 8 10 -8 -9 -10 -11 -12 -13 -14 -15\nleaf_value=-0.0085229751948238727 0.0092527275750529572 0.0051992584130411568 0.0064204910332661628 0.00559457567848175 -0.0049062178063956127 0.005990459239691652 0.0038323031292289986 -0.0043513943682960306 0.0059496499963611095 0.0011484628054430838 0.01607724756271239 0.004285705184088307 -0.0055204125086738744 -0.0018611627478525507\nleaf_weight=304 1155 567 284 43 92 45 64 1180 135 827 117 78 206 5915\nleaf_count=304 1155 567 284 43 92 45 64 1180 135 827 117 78 206 5915\ninternal_value=0 -0.00109287 -0.00174328 -0.0020067 -0.00140535 0.00703542 -0.00483499 -0.00521448 0.00123583 0.000532227 0.01336 -0.00185226 -0.00193142 -0.00180558\ninternal_weight=0 9857 9128 8844 7296 729 1548 1484 1054 919 162 6242 6164 5958\ninternal_count=11012 9857 9128 8844 7296 729 1548 1484 1054 919 162 6242 6164 5958\nis_linear=0\nshrinkage=0.05\n\n\nTree=2\nnum_leaves=15\nnum_cat=0\nsplit_feature=2 5 4 0 6 0 3 3 4 5 2 3 0 0\nsplit_gain=67.4743 13.7369 9.83936 6.23643 3.74622 3.68098 2.42941 2.15647 1.94088 1.98448 1.0656 1.25607 0.951525 1.30074\nthreshold=3.5000000000000004 1.0000000180025095e-35 1.0000000180025095e-35 3.8050000000000002 inf 3.0050000000000003 5.5000000000000009 1.0000000180025095e-35 1.0000000180025095e-35 1.0000000180025095e-35 2.5000000000000004 4.5000000000000009 3.5205000000000006 3.7705000000000006\ndecision_type=8 10 2 10 8 8 10 10 2 10 8 8 10 8\nleft_child=4 2 3 5 -1 -2 -3 12 9 10 11 -6 -7 -14\nright_child=1 6 -4 -5 8 7 -8 -9 -10 -11 -12 -13 13 -15\nleaf_value=0.0049129743039941567 -0.0081828949199083453 0.0054294204066262872 0.0056622277689747673 0.0012537206846913891 0.013961439759339944 -0.0030700748705321272 0.015101917792527271 0.0015258422020891413 0.013366494317374645 0.016650909263093615 0.003965692150161378 0.0078631101195948405 -0.00081989208234215037 -0.0051320992609799436\nleaf_weight=334 310 314 400 1054 114 5736 83 299 502 81 124 397 1054 210\nleaf_count=334 310 314 400 1054 114 5736 83 299 502 81 124 397 1054 210\ninternal_value=0 -0.00159243 -0.00199192 -0.00234653 0.00965252 -0.00284599 0.00749706 -0.00261755 0.010943 0.0092206 0.00824024 0.00925798 -0.00279544 -0.00154376\ninternal_weight=0 9460 9063 8663 1552 7609 397 7299 1218 716 635 511 7000 1264\ninternal_count=11012 9460 9063 8663 1552 7609 397 7299 1218 716 635 511 7000 1264\nis_linear=0\nshrinkage=0.05\n\n\nTree=3\nnum_leaves=15\nnum_cat=0\nsplit_feature=2 5 4 0 0 3 3 1 5 2 5 1 3 1\nsplit_gain=66.4701 13.4751 9.68899 6.10085 3.60316 2.37641 2.12819 2.32684 1.75553 1.38325 1.53465 1.33655 1.17701 1.0024\nthreshold=3.5000000000000004 1.0000000180025095e-35 1.0000000180025095e-35 3.8050000000000002 3.0050000000000003 5.5000000000000009 1.0000000180025095e-35 168.50000000000003 1.0000000180025095e-35 2.5000000000000004 1.0000000180025095e-35 163.50000000000003 4.5000000000000009 169.50000000000003\ndecision_type=8 10 2 10 8 10 10 10 10 10 8 10 8 10\nleft_child=8 2 3 4 -2 -3 7 -6 9 10 -1 -5 -12 -10\nright_child=1 5 -4 11 6 -7 -8 -9 13 -11 12 -13 -14 -15\nleaf_value=0.0012285044850759512 -0.0081022517418765216 0.0053767633469259815 0.005619341964762381 0.00054166766356661769 -0.002875034809791155 0.014943947282310497 0.0015201398523076971 0.0053390567332356025 0.014352378438861432 0.0052256714565657317 0.013085428295566229 0.0058630890662671326 0.0089790100593939732 0.0037605911008739058\nleaf_weight=54 310 314 400 919 6914 83 299 86 241 234 247 135 749 27\nleaf_count=54 310 314 400 919 6914 83 299 86 241 234 247 135 749 27\ninternal_value=0 -0.00158039 -0.00197607 -0.00232796 -0.00282196 0.00742204 -0.00259594 -0.00277266 0.00958056 0.00878603 0.00956899 0.0012329 0.0100145 0.0133218\ninternal_weight=0 9460 9063 8663 7609 397 7299 7000 1552 1284 1050 1054 996 268\ninternal_count=11012 9460 9063 8663 7609 397 7299 7000 1552 1284 1050 1054 996 268\nis_linear=0\nshrinkage=0.05\n\n\nTree=4\nnum_leaves=15\nnum_cat=0\nsplit_feature=2 5 4 0 6 0 3 3 4 5 2 3 0 0\nsplit_gain=65.5209 13.2163 9.53969 5.9648 3.60397 3.5296 2.32443 2.09955 1.90072 1.89701 1.04823 1.20842 0.927181 1.26909\nthreshold=3.5000000000000004 1.0000000180025095e-35 1.0000000180025095e-35 3.8050000000000002 inf 3.0050000000000003 5.5000000000000009 1.0000000180025095e-35 1.0000000180025095e-35 1.0000000180025095e-35 2.5000000000000004 4.5000000000000009 3.5205000000000006 3.7705000000000006\ndecision_type=8 10 2 10 8 8 10 10 2 10 10 8 10 8\nleft_child=4 2 3 5 -1 -2 -3 12 9 10 11 -6 -7 -14\nright_child=1 6 -4 -5 8 7 -8 -9 -10 -11 -12 -13 13 -15\nleaf_value=0.0048625148178733845 -0.008024616451743849 0.0053235317162694824 0.0055758720365059918 0.0012109588423219848 0.013738984721198009 -0.0030213120977114257 0.014786263423960073 0.0015135327328875065 0.013176120106745397 0.016340716479983277 0.0038755570732266148 0.0077546838103222764 -0.000799527999879411 -0.0050589824269663547\nleaf_weight=334 310 314 400 1054 114 5736 83 299 502 81 124 397 1054 210\nleaf_count=334 310 314 400 1054 114 5736 83 299 502 81 124 397 1054 210\ninternal_value=0 -0.0015689 -0.00196076 -0.00230993 0.00951208 -0.0027984 0.00734663 -0.00257468 0.0107779 0.00907354 0.00811445 0.00912373 -0.00275021 -0.00151458\ninternal_weight=0 9460 9063 8663 1552 7609 397 7299 1218 716 635 511 7000 1264\ninternal_count=11012 9460 9063 8663 1552 7609 397 7299 1218 716 635 511 7000 1264\nis_linear=0\nshrinkage=0.05\n\n\nTree=5\nnum_leaves=15\nnum_cat=0\nsplit_feature=2 5 4 0 6 0 3 11 1 4 5 1 2 3\nsplit_gain=64.5466 12.9651 9.39391 5.8351 3.50189 3.45476 2.27413 2.07183 2.27231 1.86235 1.84761 1.31346 1.03705 1.18042\nthreshold=3.5000000000000004 1.0000000180025095e-35 1.0000000180025095e-35 3.8050000000000002 inf 3.0050000000000003 5.5000000000000009 1.0000000180025095e-35 168.50000000000003 1.0000000180025095e-35 1.0000000180025095e-35 163.50000000000003 2.5000000000000004 4.5000000000000009\ndecision_type=8 10 2 10 8 8 10 2 10 2 10 10 10 8\nleft_child=4 2 3 5 -1 -2 -3 8 -7 10 12 -5 13 -6\nright_child=1 6 -4 11 9 7 -8 -9 -10 -11 -12 -13 -14 -15\nleaf_value=0.0048570897840386588 -0.007945412090601801 0.0052719360811773605 0.0055336269987661703 0.00050547422828325136 0.013621556469245398 -0.0028289969888510439 0.014632487424447832 0.0015076299630990908 0.0052880708923556683 0.01306339216093287 0.016175344728413667 0.0057804911764888778 0.0038385504524500653 0.0077049123133767217\nleaf_weight=334 310 314 400 919 114 6914 83 299 86 502 81 135 124 397\nleaf_count=334 310 314 400 919 114 6914 83 299 86 502 81 135 124 397\ninternal_value=0 -0.00155705 -0.00194517 -0.00229167 0.00944124 -0.00277479 0.00727334 -0.00255345 -0.00272782 0.0106892 0.00900172 0.00119069 0.0080548 0.00905866\ninternal_weight=0 9460 9063 8663 1552 7609 397 7299 7000 1218 716 1054 635 511\ninternal_count=11012 9460 9063 8663 1552 7609 397 7299 7000 1218 716 1054 635 511\nis_linear=0\nshrinkage=0.05\n\n\nTree=6\nnum_leaves=15\nnum_cat=0\nsplit_feature=2 11 0 0 12 1 0 1 12 1 12 0 2 12\nsplit_gain=63.5956 10.7521 5.30681 3.28417 3.03675 1.97418 1.45983 1.29335 1.20235 1.15083 1.02148 1.28457 0.9982 1.31618\nthreshold=3.5000000000000004 1.0000000180025095e-35 3.5205000000000006 3.8050000000000002 1.0000000180025095e-35 160.50000000000003 3.0050000000000003 163.50000000000003 1.0000000180025095e-35 168.50000000000003 1.0000000180025095e-35 3.6350000000000002 2.5000000000000004 1.0000000180025095e-35\ndecision_type=8 2 8 10 2 10 10 10 2 10 2 8 8 2\nleft_child=12 2 5 9 -3 6 -2 8 -5 10 -4 -12 -1 -14\nright_child=1 4 3 7 -6 -7 -8 -9 -10 -11 11 -13 13 -15\nleaf_value=0.010005624951458167 -0.0081246538466111014 0.0029457114986591202 -0.0022151042312602469 0.001090012403830695 0.01139437651240132 0.0038641622044063985 -0.0042049862061186924 0.0057141099663525711 -0.004901736241908811 0.0041257729690958927 0.010490594466811479 -0.0007615023857918292 0.0046825172788243705 0.012382749159742641\nleaf_weight=1252 304 460 5175 826 139 64 1181 135 92 78 25 981 224 76\nleaf_count=1252 304 460 5175 826 139 64 1181 135 92 78 25 981 224 76\ninternal_value=0 -0.00154537 -0.00198419 -0.00141963 0.00493031 -0.00464332 -0.00501569 0.00116005 0.000479411 -0.00185455 -0.00193148 -0.000466772 0.00937159 0.00668451\ninternal_weight=0 9460 8861 7312 599 1549 1485 1053 918 6259 6181 1006 1552 300\ninternal_count=11012 9460 8861 7312 599 1549 1485 1053 918 6259 6181 1006 1552 300\nis_linear=0\nshrinkage=0.05\n\n\nTree=7\nnum_leaves=15\nnum_cat=0\nsplit_feature=2 5 4 1 6 3 3 4 5 2 3 3 8 5\nsplit_gain=62.6849 12.5925 9.22147 3.74265 3.38292 2.1761 2.16937 1.82865 1.78426 1.01848 1.15379 0.732097 0.722402 0.672238\nthreshold=3.5000000000000004 1.0000000180025095e-35 1.0000000180025095e-35 161.50000000000003 inf 1.0000000180025095e-35 5.5000000000000009 1.0000000180025095e-35 1.0000000180025095e-35 2.5000000000000004 4.5000000000000009 8.0000000000000018 1.0000000180025095e-35 1.0000000180025095e-35\ndecision_type=8 10 2 10 8 10 10 2 10 8 8 10 2 8\nleft_child=4 2 3 5 13 -2 -3 8 9 10 -6 -4 -9 -1\nright_child=1 6 11 -5 7 -7 -8 12 -10 -11 -12 -13 -14 -15\nleaf_value=-0.0021640317688684384 -0.0026635353892096357 0.0052126587995051377 0.0060018991093747989 0.0021344593408916877 0.013434141011612733 0.0016813755012512943 0.014357704427626678 0.013352383466304619 0.0159099924210102 0.0037504691921647669 0.007584507592837424 -0.0033157629670183849 0.0045864407328508995 0.0055064234968134305\nleaf_weight=30 7909 314 379 457 114 297 83 474 81 124 397 21 28 304\nleaf_count=30 7909 314 379 457 114 297 83 474 81 124 397 21 28 304\ninternal_value=0 -0.0015341 -0.00191661 -0.00225992 0.00930441 -0.00250548 0.00716843 0.0105311 0.00885912 0.00792825 0.00892297 0.0054932 0.0128835 0.00479813\ninternal_weight=0 9460 9063 8663 1552 8206 397 1218 716 635 511 400 502 334\ninternal_count=11012 9460 9063 8663 1552 8206 397 1218 716 635 511 400 502 334\nis_linear=0\nshrinkage=0.05\n\n\nTree=8\nnum_leaves=15\nnum_cat=0\nsplit_feature=10 5 4 0 0 6 4 5 11 11 6 11 0 0\nsplit_gain=59.5238 10.9669 8.36317 5.62129 3.28718 3.03882 2.64548 2.64678 1.60008 1.4919 1.07867 1.01384 0.936724 1.23709\nthreshold=1.0000000180025095e-35 1.0000000180025095e-35 1.0000000180025095e-35 3.8050000000000002 3.0050000000000003 inf 1.0000000180025095e-35 1.0000000180025095e-35 1.0000000180025095e-35 1.0000000180025095e-35 1.0000000180025095e-35 1.0000000180025095e-35 3.5205000000000006 3.7705000000000006\ndecision_type=2 10 2 10 8 8 2 10 2 2 8 2 10 8\nleft_child=1 2 3 4 -1 -2 7 11 10 -3 -6 -7 -12 -14\nright_child=5 9 -4 -5 8 6 -8 -9 -10 -11 12 -13 13 -15\nleaf_value=-0.0077752657357104881 0.0043728883366353577 0.0045813836939096082 0.0053930954568711994 0.001162611860634496 0.0074657334324629496 0.0055033075444402696 0.012438288796299889 0.015865049020260012 0.0012245023895847054 0.01145306461786022 -0.0029777091583855632 0.0095918422816365749 -0.00075508013965507005 -0.0049603189607206333\nleaf_weight=310 347 266 372 1054 25 499 532 92 273 116 5631 231 1054 210\nleaf_count=310 347 266 372 1054 25 499 532 92 273 116 5631 231 1054 210\ninternal_value=0 -0.00157708 -0.0019327 -0.00225235 -0.00273283 0.00859212 0.0096657 0.00785226 -0.00251377 0.00670558 -0.00266213 0.00681527 -0.00270065 -0.00146106\ninternal_weight=0 9311 8929 8557 7503 1701 1354 822 7193 382 6920 730 6895 1264\ninternal_count=11012 9311 8929 8557 7503 1701 1354 822 7193 382 6920 730 6895 1264\nis_linear=0\nshrinkage=0.05\n\n\nTree=9\nnum_leaves=15\nnum_cat=0\nsplit_feature=2 5 0 3 0 3 1 5 0 2 5 1 1 0\nsplit_gain=60.8843 12.1258 5.23718 3.85327 3.7475 2.09203 1.97969 1.57838 1.39644 1.37557 1.4572 1.24987 1.21889 1.07377\nthreshold=3.5000000000000004 1.0000000180025095e-35 3.5205000000000006 8.0000000000000018 3.8050000000000002 5.5000000000000009 160.50000000000003 1.0000000180025095e-35 3.0050000000000003 2.5000000000000004 1.0000000180025095e-35 163.50000000000003 168.50000000000003 3.5450000000000004\ndecision_type=8 10 8 8 10 10 10 10 8 8 8 10 10 8\nleft_child=7 2 6 -4 12 -3 8 9 -2 10 -1 -6 13 -5\nright_child=1 5 3 4 11 -7 -8 -9 -10 -11 -12 -13 -14 -15\nleaf_value=0.001069945761090869 -0.0079495193065581178 0.0051071206467657665 0.0033105981458393381 0.0055793546924831107 0.00046406062968010702 0.014088517972459094 0.0039193509248733171 0.012720447896154063 -0.0041156276953483468 0.0048701651472977357 0.0096299328909079107 0.0056101052537404286 0.0040572138369272884 -0.002235579559679303\nleaf_weight=54 304 314 419 43 918 83 65 268 1182 234 996 135 78 5919\nleaf_count=54 304 314 419 43 918 83 65 268 1182 234 996 135 78 5919\ninternal_value=0 -0.0015116 -0.00188696 -0.00133951 -0.00161533 0.00702809 -0.00453268 0.00917011 -0.00490813 0.00841586 0.0091959 0.00113325 -0.00209545 -0.00217745\ninternal_weight=0 9460 9063 7512 7093 397 1551 1552 1486 1284 1050 1053 6040 5962\ninternal_count=11012 9460 9063 7512 7093 397 1551 1552 1486 1284 1050 1053 6040 5962\nis_linear=0\nshrinkage=0.05\n\n\nTree=10\nnum_leaves=15\nnum_cat=0\nsplit_feature=2 5 4 0 0 3 11 1 5 2 5 1 3 1\nsplit_gain=60.0135 11.8898 8.91389 5.34549 3.16779 2.04741 1.90803 2.11235 1.53849 1.36785 1.42233 1.22086 1.06645 0.970432\nthreshold=3.5000000000000004 1.0000000180025095e-35 1.0000000180025095e-35 3.8050000000000002 3.0050000000000003 5.5000000000000009 1.0000000180025095e-35 168.50000000000003 1.0000000180025095e-35 2.5000000000000004 1.0000000180025095e-35 163.50000000000003 4.5000000000000009 169.50000000000003\ndecision_type=8 10 2 10 8 10 2 10 10 8 8 10 8 10\nleft_child=8 2 3 4 -2 -3 7 -6 9 10 -1 -5 -12 -10\nright_child=1 5 -4 11 6 -7 -8 -9 13 -11 12 -13 -14 -15\nleaf_value=0.0011062856984542103 -0.0076238579836982422 0.0050548957580423609 0.0054128559790474198 0.00046230121224480531 -0.0027251578163464941 0.013940667362303639 0.0014365356825848457 0.0051003043638083601 0.013623138783997747 0.0048240857655030001 0.01249188094079395 0.005548062986821191 0.0085792761812222059 0.0032314705118731573\nleaf_weight=54 310 314 400 919 6914 83 299 86 241 234 247 135 749 27\nleaf_count=54 310 314 400 919 6914 83 299 86 241 234 247 135 749 27\ninternal_value=0 -0.00150059 -0.00187228 -0.00220983 -0.00267225 0.00695555 -0.00246024 -0.00262759 0.00910446 0.00835949 0.00913729 0.00112308 0.00956614 0.0126107\ninternal_weight=0 9460 9063 8663 7609 397 7299 7000 1552 1284 1050 1054 996 268\ninternal_count=11012 9460 9063 8663 7609 397 7299 7000 1552 1284 1050 1054 996 268\nis_linear=0\nshrinkage=0.05\n\n\nTree=11\nnum_leaves=15\nnum_cat=0\nsplit_feature=10 5 0 0 3 6 5 3 1 0 3 1 0 3\nsplit_gain=56.956 10.3385 4.97734 3.01035 3.505 2.9095 2.28672 2.05717 1.92934 1.32762 1.25582 1.18578 1.1834 1.07067\nthreshold=1.0000000180025095e-35 1.0000000180025095e-35 3.5205000000000006 3.8050000000000002 1.0000000180025095e-35 inf 1.0000000180025095e-35 5.5000000000000009 160.50000000000003 3.0050000000000003 4.5000000000000009 163.50000000000003 3.5450000000000004 1.0000000180025095e-35\ndecision_type=2 10 8 10 10 8 10 10 10 8 8 10 8 10\nleft_child=1 2 8 4 12 -2 13 -3 9 -1 -8 -5 -4 -7\nright_child=5 7 3 11 -6 6 10 -9 -10 -11 -12 -13 -14 -15\nleaf_value=-0.0077998402609000209 0.004276190294717974 0.0045877790791208697 0.005976925055648956 0.00047252435644548906 0.0025797088052075261 0.0072582082330167885 0.0068090916483973876 0.013734690857301069 0.0038804708514470405 -0.0040604322587048033 0.016535662615534259 0.0054842717714693222 -0.0021398443555252829 0.010456813659529236\nleaf_weight=304 347 304 44 921 432 685 47 78 65 1182 158 135 5846 464\nleaf_count=304 347 304 44 921 432 685 47 78 65 1182 158 135 5846 464\ninternal_value=0 -0.00154222 -0.00188751 -0.00134492 -0.00175798 0.00840521 0.00945576 0.00649951 -0.00446284 -0.00483352 0.0143738 0.00112254 -0.00207736 0.00856222\ninternal_weight=0 9311 8929 7378 6322 1701 1354 382 1551 1486 205 1056 5890 1149\ninternal_count=11012 9311 8929 7378 6322 1701 1354 382 1551 1486 205 1056 5890 1149\nis_linear=0\nshrinkage=0.05\n\n\nTree=12\nnum_leaves=15\nnum_cat=0\nsplit_feature=4 11 5 0 0 5 1 0 1 5 0 6 6 1\nsplit_gain=38.3015 17.4666 6.36881 5.08487 2.69925 2.61023 1.82186 1.28148 1.19612 1.1425 1.05054 1.03032 0.947317 0.934407\nthreshold=1.0000000180025095e-35 1.0000000180025095e-35 1.0000000180025095e-35 3.5205000000000006 3.8050000000000002 1.0000000180025095e-35 160.50000000000003 3.0050000000000003 163.50000000000003 1.0000000180025095e-35 3.5450000000000004 inf inf 168.50000000000003\ndecision_type=2 2 10 8 10 10 10 8 10 8 8 8 8 10\nleft_child=1 2 3 6 10 -3 7 -1 9 -6 -5 -2 -7 -12\nright_child=11 5 -4 4 8 12 -8 -9 -10 -11 13 -13 -14 -15\nleaf_value=-0.0077232497384355616 0.0054813167518976301 0.004797544440966502 0.0057433285907940914 0.0059018875416859892 -0.0048571787567389564 0.0034632415178653449 0.003720246759931321 -0.0040476425405653908 0.0054223438769978489 0.00098380147549645652 -0.0018144591361069736 0.0093534469202907113 0.013824756661205348 0.0036758490798653428\nleaf_weight=304 226 567 284 44 92 29 64 1180 135 827 6121 929 133 77\nleaf_count=304 226 567 284 44 92 29 64 1180 135 827 6121 929 133 77\ninternal_value=0 -0.00101453 -0.00161 -0.00184732 -0.00129375 0.0064266 -0.00445064 -0.00480866 0.00104295 0.000388989 -0.00168922 0.00860551 0.0120332 -0.00174486\ninternal_weight=0 9857 9128 8844 7296 729 1548 1484 1054 919 6242 1155 162 6198\ninternal_count=11012 9857 9128 8844 7296 729 1548 1484 1054 919 6242 1155 162 6198\nis_linear=0\nshrinkage=0.05\n\n\nTree=13\nnum_leaves=15\nnum_cat=0\nsplit_feature=2 5 4 0 6 0 3 3 4 5 2 3 0 0\nsplit_gain=57.9134 11.2124 8.55702 5.01909 3.04367 2.96361 1.93192 1.80065 1.66711 1.54674 1.02052 1.0576 0.828235 1.19799\nthreshold=3.5000000000000004 1.0000000180025095e-35 1.0000000180025095e-35 3.8050000000000002 inf 3.0050000000000003 5.5000000000000009 1.0000000180025095e-35 1.0000000180025095e-35 1.0000000180025095e-35 2.5000000000000004 4.5000000000000009 3.5205000000000006 3.7705000000000006\ndecision_type=8 10 2 10 8 8 10 10 2 10 10 8 10 8\nleft_child=4 2 3 5 -1 -2 -3 12 9 10 11 -6 -7 -14\nright_child=1 6 -4 -5 8 7 -8 -9 -10 -11 -12 -13 13 -15\nleaf_value=0.004667475529359792 -0.007403143939841335 0.0048911728720595982 0.00530317033818117 0.0010641350057855391 0.012959431518983766 -0.002827104833331498 0.013524010188862316 0.0013769146471126932 0.01235556489460159 0.015084725009066109 0.0034658651280536482 0.0073527971049135001 -0.00070796462767007623 -0.004846053565283291\nleaf_weight=334 310 314 400 1054 114 5736 83 299 502 81 124 397 1054 210\nleaf_count=334 310 314 400 1054 114 5736 83 299 502 81 124 397 1054 210\ninternal_value=0 -0.00147361 -0.00183458 -0.0021653 0.00894423 -0.00261338 0.00673803 -0.00240828 0.0101081 0.00851036 0.00764148 0.00863623 -0.00257085 -0.0014027\ninternal_weight=0 9460 9063 8663 1552 7609 397 7299 1218 716 635 511 7000 1264\ninternal_count=11012 9460 9063 8663 1552 7609 397 7299 1218 716 635 511 7000 1264\nis_linear=0\nshrinkage=0.05\n\n\nTree=14\nnum_leaves=15\nnum_cat=0\nsplit_feature=2 4 11 0 6 0 1 4 1 0 0 3 1 0\nsplit_gain=57.0573 9.76796 6.23188 4.75303 2.95825 2.95803 1.91053 1.63426 1.15727 1.03401 1.01248 0.905201 0.854812 1.01095\nthreshold=3.5000000000000004 1.0000000180025095e-35 1.0000000180025095e-35 3.8050000000000002 inf 3.0050000000000003 168.50000000000003 1.0000000180025095e-35 163.50000000000003 3.5205000000000006 3.5450000000000004 8.0000000000000018 161.50000000000003 3.8450000000000002\ndecision_type=8 2 2 10 8 8 10 2 10 8 8 10 8 10\nleft_child=4 2 3 5 -1 -2 9 -6 12 -7 -11 -3 -5 -14\nright_child=1 11 -4 8 7 6 -8 -9 -10 10 -12 -13 13 -15\nleaf_value=0.004660825830910739 -0.0073297310294513987 0.0062357354849477999 0.0042820668986115647 -0.0037137913488542954 0.0084433416512107728 -0.003754182948203932 0.0050115163225710148 0.012251138922624858 0.0053436496092197352 0.0053782482655750537 -0.0022092577705849726 -0.0033200600036932676 0.0056703348015561157 0.00028951079954238394\nleaf_weight=334 310 428 398 110 716 1230 86 502 135 43 5887 25 99 709\nleaf_count=334 310 428 398 110 716 1230 86 502 135 43 5887 25 99 709\ninternal_value=0 -0.00146253 -0.00182347 -0.00210677 0.00887803 -0.00254551 -0.00233916 0.0100256 0.00103614 -0.00242883 -0.0021525 0.00569121 0.000392117 0.00096117\ninternal_weight=0 9460 9007 8609 1552 7556 7246 1218 1053 7160 5930 453 918 808\ninternal_count=11012 9460 9007 8609 1552 7556 7246 1218 1053 7160 5930 453 918 808\nis_linear=0\nshrinkage=0.05\n\n\nTree=15\nnum_leaves=15\nnum_cat=0\nsplit_feature=2 5 4 1 6 3 3 4 5 2 3 8 3 4\nsplit_gain=56.2052 10.9668 8.2977 3.296 2.87516 1.9018 1.86826 1.60206 1.50309 1.01935 1.03429 0.719541 0.704517 0.636123\nthreshold=3.5000000000000004 1.0000000180025095e-35 1.0000000180025095e-35 161.50000000000003 inf 1.0000000180025095e-35 5.5000000000000009 1.0000000180025095e-35 1.0000000180025095e-35 2.5000000000000004 4.5000000000000009 1.0000000180025095e-35 8.0000000000000018 1.0000000180025095e-35\ndecision_type=8 10 2 10 8 10 10 2 10 8 8 2 10 2\nleft_child=4 2 3 5 -1 -2 13 8 9 10 -6 -9 -4 -3\nright_child=1 6 12 -5 7 -7 -8 11 -10 -11 -12 -13 -14 -15\nleaf_value=0.0046532190067602591 -0.0025122860383158772 0.0038993130489608468 0.0057198375131277861 0.0019893973029800048 0.012788728930297559 0.0015488639248778385 0.013344195762874276 0.012613397283350695 0.014857770991975086 0.0033487430981152481 0.007244022250332713 0.0039163885610699568 -0.0034176621222310418 0.010523900662925571\nleaf_weight=334 7909 271 379 457 114 297 83 474 81 124 397 28 21 43\nleaf_count=334 7909 271 379 457 114 297 83 474 81 124 397 28 21 43\ninternal_value=0 -0.00145138 -0.00180838 -0.00213406 0.00881167 -0.00236452 0.00666979 0.00994315 0.00837623 0.00751952 0.00851333 0.012147 0.00522032 0.0048529\ninternal_weight=0 9460 9063 8663 1552 8206 397 1218 716 635 511 502 400 314\ninternal_count=11012 9460 9063 8663 1552 8206 397 1218 716 635 511 502 400 314\nis_linear=0\nshrinkage=0.05\n\n\nTree=16\nnum_leaves=15\nnum_cat=0\nsplit_feature=2 5 4 0 0 6 3 3 1 4 5 1 2 3\nsplit_gain=55.3779 10.7626 8.17248 4.79351 2.83773 2.79454 1.8287 1.71052 1.95315 1.5711 1.46487 1.11038 1.00817 1.01079\nthreshold=3.5000000000000004 1.0000000180025095e-35 1.0000000180025095e-35 3.8050000000000002 3.0050000000000003 inf 5.5000000000000009 1.0000000180025095e-35 168.50000000000003 1.0000000180025095e-35 1.0000000180025095e-35 163.50000000000003 2.5000000000000004 4.5000000000000009\ndecision_type=8 10 2 10 8 8 10 10 10 2 10 10 8 8\nleft_child=5 2 3 4 -2 -1 -3 8 -6 10 12 -5 13 -7\nright_child=1 6 -4 11 7 9 -8 -9 -10 -11 -12 -13 -14 -15\nleaf_value=0.0046461269056101576 -0.0072423442141228075 0.0048068424637226917 0.0051813031646940509 0.00040822547890194747 -0.0026068297768339277 0.012680513272764652 0.013208491056722777 0.001334428091118927 0.0049172651382328614 0.012045180900768854 0.014710653396634275 0.0052584933065258042 0.0033163325402845579 0.0071971581896521225\nleaf_weight=334 310 314 400 919 6914 114 83 299 86 502 81 135 124 397\nleaf_count=334 310 314 400 919 6914 114 83 299 86 502 81 135 124 397\ninternal_value=0 -0.00144048 -0.00179414 -0.00211735 -0.00255525 0.00874676 0.0066047 -0.00235453 -0.00251299 0.0098624 0.00831038 0.0010386 0.00746426 0.00845259\ninternal_weight=0 9460 9063 8663 7609 1552 397 7299 7000 1218 716 1054 635 511\ninternal_count=11012 9460 9063 8663 7609 1552 397 7299 7000 1218 716 1054 635 511\nis_linear=0\nshrinkage=0.05\n\n\nTree=17\nnum_leaves=15\nnum_cat=0\nsplit_feature=2 5 4 0 0 6 3 3 4 5 2 3 0 0\nsplit_gain=54.569 10.56 8.04738 4.68644 2.77873 2.71606 1.79097 1.68729 1.54052 1.42786 0.997335 0.98789 0.798679 1.15383\nthreshold=3.5000000000000004 1.0000000180025095e-35 1.0000000180025095e-35 3.8050000000000002 3.0050000000000003 inf 5.5000000000000009 1.0000000180025095e-35 1.0000000180025095e-35 1.0000000180025095e-35 2.5000000000000004 4.5000000000000009 3.8450000000000002 3.9545000000000008\ndecision_type=8 10 2 10 8 8 10 10 2 10 8 8 10 10\nleft_child=5 2 3 4 -2 -1 -3 -6 9 10 11 -7 -5 -14\nright_child=1 6 -4 12 7 8 -8 -9 -10 -11 -12 -13 13 -15\nleaf_value=0.0046392700318265163 -0.00717199315720639 0.004759821123028668 0.0051417572395091472 0.0046781258778961039 -0.0024925212259663447 0.012574020019500969 0.013075030160641441 0.0013286122255409358 0.011944592765746026 0.014566242029466606 0.0032842791117647869 0.007151150968737305 -0.00089378748264527178 0.0027313854415846519\nleaf_weight=334 310 314 400 130 7000 114 83 299 502 81 124 397 569 355\nleaf_count=334 310 314 400 130 7000 114 83 299 502 81 124 397 569 355\ninternal_value=0 -0.00142974 -0.00178006 -0.0021008 -0.00253378 0.00868282 0.00653931 -0.00233514 0.00978283 0.00824566 0.00740991 0.00839291 0.00101967 0.000495043\ninternal_weight=0 9460 9063 8663 7609 1552 397 7299 1218 716 635 511 1054 924\ninternal_count=11012 9460 9063 8663 7609 1552 397 7299 1218 716 635 511 1054 924\nis_linear=0\nshrinkage=0.05\n\n\nTree=18\nnum_leaves=15\nnum_cat=0\nsplit_feature=10 4 11 1 12 6 4 12 3 3 3 6 3 8\nsplit_gain=51.6721 8.35915 5.17701 3.28848 3.22482 2.44812 2.23717 1.79545 1.30239 1.00064 0.985492 0.942108 0.860327 0.610547\nthreshold=1.0000000180025095e-35 1.0000000180025095e-35 1.0000000180025095e-35 161.50000000000003 1.0000000180025095e-35 inf 1.0000000180025095e-35 1.0000000180025095e-35 4.5000000000000009 5.5000000000000009 4.5000000000000009 1.0000000180025095e-35 8.0000000000000018 1.0000000180025095e-35\ndecision_type=2 2 2 10 2 8 2 2 8 10 8 8 10 2\nleft_child=1 2 3 11 -4 -2 7 8 -7 -6 -9 -1 -3 -8\nright_child=5 12 4 -5 9 6 13 10 -10 -11 -12 -13 -14 -15\nleaf_value=0.0065321099376691354 0.0042148278207250513 0.0059783624556477254 0.0010441162574910707 0.0020815384038076539 0.00359515206196819 0.010614838329176028 0.011936453731349529 0.0031807157445938104 0.0052527413812523882 0.014703897763751953 0.015748360522239283 -0.002311712867644151 -0.003355644053223457 0.0040213964812233294\nleaf_weight=29 347 396 263 455 31 146 503 21 569 72 86 8040 25 29\nleaf_count=29 347 396 263 455 31 146 503 21 569 72 86 8040 25 29\ninternal_value=0 -0.00146779 -0.00179443 -0.00204497 0.00401656 0.00800699 0.00897132 0.00730198 0.00636794 0.0114753 0.0133804 -0.0022785 0.0054056 0.0115227\ninternal_weight=0 9311 8890 8524 366 1701 1354 822 715 103 107 8069 421 532\ninternal_count=11012 9311 8890 8524 366 1701 1354 822 715 103 107 8069 421 532\nis_linear=0\nshrinkage=0.05\n\n\nTree=19\nnum_leaves=15\nnum_cat=0\nsplit_feature=2 3 0 0 6 12 1 0 1 0 0 0 2 1\nsplit_gain=53.011 8.68195 4.45071 2.58586 2.57039 2.37199 1.71874 1.13132 1.08674 1.15958 1.36284 1.02306 0.943483 0.860609\nthreshold=3.5000000000000004 1.0000000180025095e-35 3.5205000000000006 3.8050000000000002 inf 1.0000000180025095e-35 160.50000000000003 3.0050000000000003 161.50000000000003 3.8450000000000002 3.8750000000000004 3.5450000000000004 2.5000000000000004 168.50000000000003\ndecision_type=8 10 8 10 8 2 10 10 8 10 8 8 10 10\nleft_child=4 2 6 11 -1 -3 7 -2 -5 -10 -11 -4 -6 -13\nright_child=1 5 3 8 12 -7 -8 -9 9 10 -12 13 -14 -15\nleaf_value=0.0046229343742410075 -0.0073265494219850492 0.0026539695139922211 0.00581878648545529 -0.0036656817452637189 0.010318791785246716 0.010124613099067373 0.0036966612594067322 -0.0038708910073018046 0.0063160296220648171 -0.0040416557576279672 0.0017309008866408029 -0.0017934363626814704 0.0066425585007544533 0.0034742556341108045\nleaf_weight=334 304 460 44 110 986 139 64 1181 112 118 713 6138 232 77\nleaf_count=334 304 460 44 110 986 139 64 1181 112 118 713 6138 232 77\ninternal_value=0 -0.00140885 -0.00180321 -0.00128611 0.0085583 0.00440988 -0.00423852 -0.00458613 0.00100259 0.00155574 0.00090133 -0.00167206 0.00962868 -0.00172682\ninternal_weight=0 9460 8861 7312 1552 599 1549 1485 1053 943 831 6259 1218 6215\ninternal_count=11012 9460 8861 7312 1552 599 1549 1485 1053 943 831 6259 1218 6215\nis_linear=0\nshrinkage=0.05\n\n\nTree=20\nnum_leaves=15\nnum_cat=0\nsplit_feature=2 4 3 0 12 0 6 1 4 1 12 0 12 2\nsplit_gain=52.2302 9.01031 5.65289 4.33061 3.34542 2.71472 2.49716 1.74928 1.47987 1.07611 1.10142 0.999224 0.990112 1.00369\nthreshold=3.5000000000000004 1.0000000180025095e-35 1.0000000180025095e-35 3.8050000000000002 1.0000000180025095e-35 3.0050000000000003 inf 168.50000000000003 1.0000000180025095e-35 163.50000000000003 1.0000000180025095e-35 3.5205000000000006 1.0000000180025095e-35 2.5000000000000004\ndecision_type=8 2 10 10 2 8 8 10 2 10 2 8 2 8\nleft_child=6 2 3 5 -4 -2 -1 11 12 10 -5 -7 13 -8\nright_child=1 -3 4 9 -6 7 8 -9 -10 -11 -12 -13 -14 -15\nleaf_value=0.004615376017677298 -0.0070171094688110409 0.0054723332244843922 0.0012036632320121764 0.00094867319610223095 0.011450526869761253 -0.0036244003217568727 0.0082648424096853235 0.0047969765061480797 0.011669338650725862 0.0051387799146352048 -0.0047867868133165776 -0.0020500641729316329 0.01288794508391199 0.0030665288688582698\nleaf_weight=334 310 453 288 826 110 1230 501 86 502 135 92 5930 95 120\nleaf_count=334 310 453 288 826 110 1230 501 86 502 135 92 5930 95 120\ninternal_value=0 -0.00139827 -0.00174494 -0.00201478 0.00406984 -0.00243358 0.00849522 -0.00223585 0.00955039 0.000985062 0.000363854 -0.00232168 0.00804358 0.00727492\ninternal_weight=0 9460 9007 8609 398 7556 1552 7246 1218 1053 918 7160 716 621\ninternal_count=11012 9460 9007 8609 398 7556 1552 7246 1218 1053 918 7160 716 621\nis_linear=0\nshrinkage=0.05\n\n\nTree=21\nnum_leaves=15\nnum_cat=0\nsplit_feature=2 5 4 1 6 11 3 4 5 2 3 3 6 5\nsplit_gain=51.4628 10.1152 7.64831 2.9781 2.42667 1.74734 1.59939 1.45176 1.33001 0.979566 0.94704 0.681978 0.610252 0.609405\nthreshold=3.5000000000000004 1.0000000180025095e-35 1.0000000180025095e-35 161.50000000000003 inf 1.0000000180025095e-35 5.5000000000000009 1.0000000180025095e-35 1.0000000180025095e-35 2.5000000000000004 4.5000000000000009 8.0000000000000018 1.0000000180025095e-35 1.0000000180025095e-35\ndecision_type=8 10 2 10 8 2 10 2 10 8 8 10 8 8\nleft_child=4 2 3 5 13 12 -3 8 9 10 -6 -4 -2 -1\nright_child=1 6 11 -5 7 -7 -8 -9 -10 -11 -12 -13 -14 -15\nleaf_value=-0.0020161597688441043 0.0044450477526189911 0.0047269713703500388 0.0055091191455896235 0.0018759170255408623 0.012240373944137063 0.0014882659097826142 0.012593129723522674 0.011572126310192539 0.014083193184300475 0.0030873559745652679 0.0069309680542164621 -0.0034787672209893117 -0.0024322025303706268 0.0052816296106768003\nleaf_weight=30 31 314 379 457 114 297 83 502 81 124 397 21 7878 304\nleaf_count=30 31 314 379 457 114 297 83 502 81 124 397 21 7878 304\ninternal_value=0 -0.00138777 -0.00173064 -0.00204333 0.00843277 -0.00226241 0.00641161 0.00947308 0.00798035 0.00717309 0.00814681 0.00501729 -0.00240406 0.00460715\ninternal_weight=0 9460 9063 8663 1552 8206 397 1218 716 635 511 400 7909 334\ninternal_count=11012 9460 9063 8663 1552 8206 397 1218 716 635 511 400 7909 334\nis_linear=0\nshrinkage=0.05\n\n\nTree=22\nnum_leaves=15\nnum_cat=0\nsplit_feature=2 5 4 0 0 6 11 1 4 5 11 1 0 0\nsplit_gain=50.7082 9.92604 7.53404 4.37693 2.60035 2.35886 1.56513 1.78997 1.42405 1.29696 1.17101 1.05078 1.12506 1.34044\nthreshold=3.5000000000000004 1.0000000180025095e-35 1.0000000180025095e-35 3.8050000000000002 3.0050000000000003 inf 1.0000000180025095e-35 168.50000000000003 1.0000000180025095e-35 1.0000000180025095e-35 1.0000000180025095e-35 161.50000000000003 3.8450000000000002 3.8750000000000004\ndecision_type=8 10 2 10 8 8 2 10 2 10 2 8 10 8\nleft_child=5 2 3 4 -2 -1 7 -6 9 -7 -3 -5 -13 -14\nright_child=1 10 -4 11 6 8 -8 -9 -10 -11 -12 12 13 -15\nleaf_value=0.0045981938412703871 -0.006932916787695401 0.0044478293261873345 0.004980279230445573 -0.0036022337279548603 -0.0024950727012165289 0.0071204748799253053 0.0012745875183967751 0.0047070323496872027 0.01147595732045485 0.013946137763095804 0.010377246176488938 0.0062209661013534574 -0.0040149644820182927 0.0017093484689849022\nleaf_weight=334 310 272 400 110 6914 635 299 86 502 81 125 112 118 714\nleaf_count=334 310 272 400 110 6914 635 299 86 502 81 125 112 118 714\ninternal_value=0 -0.00137737 -0.00171702 -0.00202737 -0.00244582 0.0083709 -0.00225364 -0.00240522 0.00939673 0.007918 0.00634872 0.000988175 0.00153161 0.000887639\ninternal_weight=0 9460 9063 8663 7609 1552 7299 7000 1218 716 397 1054 944 832\ninternal_count=11012 9460 9063 8663 7609 1552 7299 7000 1218 716 397 1054 944 832\nis_linear=0\nshrinkage=0.05\n\n\nTree=23\nnum_leaves=15\nnum_cat=0\nsplit_feature=10 5 4 0 0 6 4 5 1 11 6 11 1 11\nsplit_gain=47.9528 8.59534 6.88199 4.30592 2.53175 2.13446 2.06514 2.00028 1.46537 1.42264 1.0882 1.05948 1.03002 0.80605\nthreshold=1.0000000180025095e-35 1.0000000180025095e-35 1.0000000180025095e-35 3.8050000000000002 3.0050000000000003 inf 1.0000000180025095e-35 1.0000000180025095e-35 168.50000000000003 1.0000000180025095e-35 1.0000000180025095e-35 1.0000000180025095e-35 163.50000000000003 1.0000000180025095e-35\ndecision_type=2 10 2 10 8 8 2 10 10 2 8 2 10 2\nleft_child=1 2 3 4 -1 -2 7 13 9 10 -6 -3 -5 -7\nright_child=5 11 -4 12 8 6 -8 -9 -10 -11 -12 -13 -14 -15\nleaf_value=-0.0068649522077859201 0.0041695117475435617 0.0041215866672604856 0.0049171441936963108 0.00036308487308614348 0.0077071703404232583 0.0049345550552251476 0.01106726726492134 0.013984647853011964 0.0041507462198043304 0.001204388339999065 -0.0025063604501420335 0.0099278965288473152 0.0050345712068061502 0.0085863769891827771\nleaf_weight=310 347 266 372 919 25 499 532 92 87 272 6809 116 135 231\nleaf_count=310 347 266 372 919 25 499 532 92 87 272 6809 116 135 231\ninternal_value=0 -0.00141312 -0.001728 -0.00201801 -0.00243855 0.0077143 0.00861531 0.0070108 -0.00224616 -0.00232575 -0.00246714 0.00591913 0.000970369 0.00610714\ninternal_weight=0 9311 8929 8557 7503 1701 1354 822 7193 7106 6834 382 1054 730\ninternal_count=11012 9311 8929 8557 7503 1701 1354 822 7193 7106 6834 382 1054 730\nis_linear=0\nshrinkage=0.05\n\n\nTree=24\nnum_leaves=15\nnum_cat=0\nsplit_feature=10 4 11 0 12 0 6 4 1 12 11 1 0 0\nsplit_gain=47.2332 7.73464 4.69763 4.04668 2.88323 2.54005 2.07553 2.02485 1.61694 1.59071 1.02874 1.01877 1.10383 1.30391\nthreshold=1.0000000180025095e-35 1.0000000180025095e-35 1.0000000180025095e-35 3.8050000000000002 1.0000000180025095e-35 3.0050000000000003 inf 1.0000000180025095e-35 168.50000000000003 1.0000000180025095e-35 1.0000000180025095e-35 161.50000000000003 3.8450000000000002 3.8750000000000004\ndecision_type=2 2 2 10 2 8 8 2 10 2 2 8 8 10\nleft_child=1 2 3 5 -4 -1 -2 9 -7 10 -8 -5 -13 -14\nright_child=6 -3 4 11 -6 8 7 -9 -10 -11 -12 12 13 -15\nleaf_value=-0.0067971888532786648 0.0041600316991867413 0.0052092371004467744 0.001006780995548044 -0.0035771820126569848 0.010871672825089506 -0.002254359073360716 0.004772299750007444 0.010973134196232397 0.0045894165154191568 0.012681091611825443 0.008950855738420074 0.0061224788713108739 -0.0039951824120253868 0.0016513242097407302\nleaf_weight=310 347 421 263 110 103 7075 495 532 86 107 220 112 118 713\nleaf_count=310 347 421 263 110 103 7075 495 532 86 107 220 112 118 713\ninternal_value=0 -0.00140232 -0.00171653 -0.0019552 0.00381865 -0.00236436 0.00765636 0.00854497 -0.00217084 0.00695596 0.0060757 0.000942497 0.00147824 0.000839686\ninternal_weight=0 9311 8890 8524 366 7471 1701 1354 7161 822 715 1053 943 831\ninternal_count=11012 9311 8890 8524 366 7471 1701 1354 7161 822 715 1053 943 831\nis_linear=0\nshrinkage=0.05\n\n\nTree=25\nnum_leaves=15\nnum_cat=0\nsplit_feature=10 5 4 0 0 5 3 4 3 1 3 1 1 1\nsplit_gain=46.5182 8.37585 6.67958 4.1205 2.42292 2.06823 1.53571 1.4878 1.78845 1.39776 1.38688 1.00625 0.839356 0.762157\nthreshold=1.0000000180025095e-35 1.0000000180025095e-35 1.0000000180025095e-35 3.8050000000000002 3.0050000000000003 1.0000000180025095e-35 5.5000000000000009 1.0000000180025095e-35 4.5000000000000009 168.50000000000003 1.0000000180025095e-35 163.50000000000003 169.50000000000003 161.50000000000003\ndecision_type=2 10 2 10 8 10 10 2 8 10 10 10 10 8\nleft_child=1 2 3 4 -1 7 -3 8 -2 10 -6 13 -7 -5\nright_child=5 6 -4 11 9 12 -8 -9 -10 -11 -12 -13 -14 -15\nleaf_value=-0.0067299177758497839 0.01002884519914596 0.0041897552718850282 0.0048442867092705882 -0.0035421505755750464 -0.0024285681801014198 0.012443440965005291 0.012105431422982633 0.0088143669168035052 0.0042841882974734647 0.0040358103344272358 0.0011964008853334257 0.0049520424175072122 0.0029536863727677217 0.00087199049604535681\nleaf_weight=310 172 304 372 110 6834 255 78 564 682 87 272 135 28 809\nleaf_count=310 172 304 372 110 6834 255 78 564 682 87 272 135 28 809\ninternal_value=0 -0.00139151 -0.00170235 -0.00198807 -0.00239945 0.00759835 0.00584649 0.00680142 0.00545742 -0.00221122 -0.00228896 0.000935177 0.0115358 0.000334928\ninternal_weight=0 9311 8929 8557 7503 1701 382 1418 854 7193 7106 1054 283 919\ninternal_count=11012 9311 8929 8557 7503 1701 382 1418 854 7193 7106 1054 283 919\nis_linear=0\nshrinkage=0.05\n\n\nTree=26\nnum_leaves=15\nnum_cat=0\nsplit_feature=2 5 0 3 0 6 1 3 0 5 3 2 1 0\nsplit_gain=47.9273 9.32051 4.14559 3.00044 2.69841 2.16489 1.69361 1.45306 1.07143 1.01696 1.3383 1.16144 0.990933 0.963408\nthreshold=3.5000000000000004 1.0000000180025095e-35 3.5205000000000006 8.0000000000000018 3.8050000000000002 inf 160.50000000000003 5.5000000000000009 3.5450000000000004 1.0000000180025095e-35 4.5000000000000009 2.5000000000000004 163.50000000000003 3.0050000000000003\ndecision_type=8 10 8 8 10 8 10 10 8 10 8 10 10 10\nleft_child=5 2 6 -4 8 -1 13 -3 -5 11 -11 -7 -6 -2\nright_child=1 7 3 4 12 9 -8 -9 -10 10 -12 -13 -14 -15\nleaf_value=0.0045221887592739691 -0.0069008430475757986 0.0045410281685178619 0.0029225177147676864 0.0058330745029708322 0.00031170825911889925 0.009280852385657434 0.0037929281775452755 0.012042403086577466 -0.0018893206238825896 0.0046097577653583018 0.014862805643676711 0.0048634353663384727 0.0048937049572566086 -0.0037084466478808521\nleaf_weight=334 304 314 419 44 918 835 65 83 5996 44 147 192 135 1182\nleaf_count=334 304 314 419 44 918 835 65 83 5996 44 147 192 135 1182\ninternal_value=0 -0.00133842 -0.00166757 -0.00118039 -0.00142385 0.00813877 -0.0040216 0.00614821 -0.00183128 0.00912188 0.0125632 0.0084654 0.000907973 -0.0043691\ninternal_weight=0 9460 9063 7512 7093 1552 1551 397 6040 1218 191 1027 1053 1486\ninternal_count=11012 9460 9063 7512 7093 1552 1551 397 6040 1218 191 1027 1053 1486\nis_linear=0\nshrinkage=0.05\n\n\nTree=27\nnum_leaves=15\nnum_cat=0\nsplit_feature=2 5 4 0 0 6 11 4 5 11 2 0 4 0\nsplit_gain=47.2379 9.14366 7.05367 3.92738 2.33009 2.10363 1.44477 1.31183 1.15024 1.04877 0.995213 0.771229 0.748313 0.742377\nthreshold=3.5000000000000004 1.0000000180025095e-35 1.0000000180025095e-35 3.8050000000000002 3.0050000000000003 inf 1.0000000180025095e-35 1.0000000180025095e-35 1.0000000180025095e-35 1.0000000180025095e-35 2.5000000000000004 4.0500000000000007 1.0000000180025095e-35 3.5205000000000006\ndecision_type=8 10 2 10 8 8 2 2 10 2 10 8 2 10\nleft_child=5 2 3 4 -2 -1 13 8 10 12 -7 -9 -3 -6\nright_child=1 9 -4 -5 6 7 -8 11 -10 -11 -12 -13 -14 -15\nleaf_value=0.0045142181341493552 -0.0065994003610284104 0.0033734883758948318 0.0048255793994697802 0.00090139136423888426 -0.0025574846201037831 0.0078566685260358007 0.0012201338586608056 0.0024786423066748627 0.013313589381131689 0.0099017462878783994 0.002765839737990829 0.011516468812546317 0.012282158037043515 -0.0012090968544300762\nleaf_weight=334 310 246 400 1054 5736 511 299 27 81 125 124 475 26 1264\nleaf_count=334 310 246 400 1054 5736 511 299 27 81 125 124 475 26 1264\ninternal_value=0 -0.00132858 -0.00165458 -0.00195489 -0.00235127 0.00808021 -0.00216928 0.00904947 0.00762909 0.00608666 0.00687633 0.0110462 0.00428524 -0.00231493\ninternal_weight=0 9460 9063 8663 7609 1552 7299 1218 716 397 635 502 272 7000\ninternal_count=11012 9460 9063 8663 7609 1552 7299 1218 716 397 635 502 272 7000\nis_linear=0\nshrinkage=0.05\n\n\nTree=28\nnum_leaves=15\nnum_cat=0\nsplit_feature=10 5 4 0 0 5 3 4 3 1 3 1 0 0\nsplit_gain=44.5221 7.90847 6.46361 3.85938 2.27016 1.96221 1.45757 1.43971 1.74261 1.36129 1.32407 0.972389 1.07198 1.28195\nthreshold=1.0000000180025095e-35 1.0000000180025095e-35 1.0000000180025095e-35 3.8050000000000002 3.0050000000000003 1.0000000180025095e-35 5.5000000000000009 1.0000000180025095e-35 4.5000000000000009 168.50000000000003 1.0000000180025095e-35 161.50000000000003 3.8450000000000002 3.8750000000000004\ndecision_type=2 10 2 10 8 10 10 2 8 10 10 8 10 8\nleft_child=1 2 3 4 -1 7 -3 8 -2 10 -6 -5 -13 -14\nright_child=5 6 -4 11 9 -7 -8 -9 -10 -11 -12 12 13 -15\nleaf_value=-0.0065341536808350142 0.0098475774330425495 0.0040577405173431126 0.0047770158716473991 -0.003530721733152325 -0.0023729719371651569 0.011270237456368008 0.011770401155578494 0.0086377081852612447 0.0041772585275297149 0.0040049916496982781 0.0011686826583490442 0.0059847910964303946 -0.0040150895331944577 0.0015834240258621353\nleaf_weight=310 172 304 372 110 6834 283 78 564 682 87 272 112 118 714\nleaf_count=310 172 304 372 110 6834 283 78 564 682 87 272 112 118 714\ninternal_value=0 -0.00136081 -0.00166286 -0.00194393 -0.00234207 0.00743405 0.00567225 0.00665751 0.00533532 -0.00215982 -0.00223656 0.000885046 0.00140808 0.000779535\ninternal_weight=0 9311 8929 8557 7503 1701 382 1418 854 7193 7106 1054 944 832\ninternal_count=11012 9311 8929 8557 7503 1701 382 1418 854 7193 7106 1054 944 832\nis_linear=0\nshrinkage=0.05\n\n\nTree=29\nnum_leaves=15\nnum_cat=0\nsplit_feature=2 5 0 3 0 1 3 5 2 5 0 1 3 0\nsplit_gain=45.9194 8.81735 3.95737 2.87402 2.51449 1.64693 1.37811 1.11198 1.44453 1.31969 1.04396 0.971787 0.925367 0.918521\nthreshold=3.5000000000000004 1.0000000180025095e-35 3.5205000000000006 8.0000000000000018 3.8050000000000002 160.50000000000003 5.5000000000000009 1.0000000180025095e-35 2.5000000000000004 1.0000000180025095e-35 3.5450000000000004 163.50000000000003 4.5000000000000009 2.6050000000000004\ndecision_type=8 10 8 8 10 10 10 10 10 8 8 10 8 10\nleft_child=7 2 5 -4 10 13 -3 8 9 -1 -5 -6 -9 -2\nright_child=1 6 3 4 11 -7 -8 12 -10 -11 -12 -13 -14 -15\nleaf_value=0.00040904551621166936 -0.011160041377254284 0.0044063449143058224 0.002861741816381528 0.0057800023956275119 0.00026837326069282125 0.0037758300501728099 0.011712933594278246 0.0049655437716279371 0.003715891560285553 0.0085403699385243042 -0.001842617192758981 0.0048055277608788092 0.012484345903878128 -0.0040364359874465305\nleaf_weight=54 47 314 419 44 918 65 83 56 234 996 5996 135 212 1439\nleaf_count=54 47 314 419 44 918 65 83 56 234 996 5996 135 212 1439\ninternal_value=0 -0.00130959 -0.00162973 -0.00115373 -0.00139201 -0.00392973 0.00597207 0.00796696 0.00733111 0.00812773 -0.00178531 0.000858811 0.0109561 -0.00427246\ninternal_weight=0 9460 9063 7512 7093 1551 397 1552 1284 1050 6040 1053 268 1486\ninternal_count=11012 9460 9063 7512 7093 1551 397 1552 1284 1050 6040 1053 268 1486\nis_linear=0\nshrinkage=0.05\n\n\nTree=30\nnum_leaves=15\nnum_cat=0\nsplit_feature=2 4 11 0 12 0 6 1 4 1 12 0 0 12\nsplit_gain=45.2754 7.90653 4.80764 3.55253 2.81104 2.24684 2.02745 1.50687 1.26835 0.953653 1.03334 0.925079 0.936546 1.13812\nthreshold=3.5000000000000004 1.0000000180025095e-35 1.0000000180025095e-35 3.8050000000000002 1.0000000180025095e-35 3.0050000000000003 inf 168.50000000000003 1.0000000180025095e-35 163.50000000000003 1.0000000180025095e-35 3.5205000000000006 3.6430000000000002 1.0000000180025095e-35\ndecision_type=8 2 2 10 2 8 8 10 2 10 2 8 8 2\nleft_child=6 2 3 5 -4 -2 -1 11 -8 10 -5 -7 13 -13\nright_child=1 -3 4 9 -6 7 8 -9 -10 -11 -12 12 -14 -15\nleaf_value=0.0044099084168310702 -0.0064239305641122782 0.005135678596853193 0.0011081877792042784 0.00082469279142588817 0.010503214395592044 -0.0034062232356452914 0.0074658807942421168 0.0044528681631884441 0.010826140710765299 0.0047524877681805527 -0.0047315211278389467 -0.00028684561346587698 -0.0020662286800145493 0.01050137623398003\nleaf_weight=334 310 453 288 826 110 1230 716 86 502 135 92 400 5505 25\nleaf_count=334 310 453 288 826 110 1230 716 86 502 135 92 400 5505 25\ninternal_value=0 -0.00130019 -0.00162497 -0.00187385 0.00373715 -0.00225316 0.00791108 -0.00207318 0.00886266 0.000842816 0.000257878 -0.00215287 -0.00189153 0.00035918\ninternal_weight=0 9460 9007 8609 398 7556 1552 7246 1218 1053 918 7160 5930 425\ninternal_count=11012 9460 9007 8609 398 7556 1552 7246 1218 1053 918 7160 5930 425\nis_linear=0\nshrinkage=0.05\n\n\nTree=31\nnum_leaves=15\nnum_cat=0\nsplit_feature=10 5 4 1 5 6 4 11 6 11 1 11 4 4\nsplit_gain=42.6148 7.55287 6.25117 2.57489 1.87126 1.70152 1.99736 1.23006 1.06435 0.87803 0.82006 0.72564 0.717293 0.638474\nthreshold=1.0000000180025095e-35 1.0000000180025095e-35 1.0000000180025095e-35 161.50000000000003 1.0000000180025095e-35 inf 1.0000000180025095e-35 1.0000000180025095e-35 1.0000000180025095e-35 1.0000000180025095e-35 169.50000000000003 1.0000000180025095e-35 1.0000000180025095e-35 1.0000000180025095e-35\ndecision_type=2 10 2 10 10 8 2 2 8 2 10 2 2 2\nleft_child=1 2 3 7 5 -2 11 8 -1 12 -6 -7 -3 -11\nright_child=4 9 -4 -5 10 6 -8 -9 -10 13 -12 -13 -14 -15\nleaf_value=0.0078428051640136182 0.0028900538419575419 0.003007682033962037 0.0047070889613892823 0.0017485778704915641 0.011916488921302391 0.0046331130004095278 0.010128073207463714 0.0011754067705553545 -0.0022574592723148667 0.01108482198575423 0.0025590427413649886 0.0080997560364986509 0.011877746839139114 0.0016041061003389985\nleaf_weight=25 269 241 372 455 255 499 419 273 7804 92 28 231 25 24\nleaf_count=25 269 241 372 455 255 499 419 273 7804 92 28 231 25 24\ninternal_value=0 -0.00133083 -0.00162602 -0.00190245 0.00727358 0.00651501 0.00735608 -0.00210829 -0.00222357 0.00554222 0.0110205 0.00574651 0.00390142 0.00919651\ninternal_weight=0 9311 8929 8557 1701 1418 1149 8102 7829 382 283 730 266 116\ninternal_count=11012 9311 8929 8557 1701 1418 1149 8102 7829 382 283 730 266 116\nis_linear=0\nshrinkage=0.05\n\n\nTree=32\nnum_leaves=15\nnum_cat=0\nsplit_feature=2 4 3 12 1 6 4 3 3 12 2 3 3 12\nsplit_gain=43.9983 7.66754 4.65302 2.70182 2.60923 1.9247 1.21623 0.84988 0.778181 0.743113 1.01373 0.93517 0.927382 0.580867\nthreshold=3.5000000000000004 1.0000000180025095e-35 1.0000000180025095e-35 1.0000000180025095e-35 161.50000000000003 inf 1.0000000180025095e-35 8.0000000000000018 5.5000000000000009 1.0000000180025095e-35 2.5000000000000004 4.5000000000000009 8.0000000000000018 1.0000000180025095e-35\ndecision_type=8 2 10 2 10 8 2 10 10 2 8 8 8 2\nleft_child=5 2 4 -4 13 -1 9 -3 -5 10 11 -7 -11 -2\nright_child=1 7 3 8 -6 6 -8 -9 -10 12 -12 -13 -14 -15\nleaf_value=0.0043861464093283105 -0.0022154112843516859 0.0055851767932074518 0.0010961027882372529 0.0035304177366621441 0.0018300267688543433 0.011798480766241584 0.010650022189801 -0.0036696713704027456 0.013065218849712863 0.0062065792144658186 0.0024712290509042124 0.0064684014149469175 0.01649233247135963 -0.00094892064013025231\nleaf_weight=334 7097 428 288 33 455 111 502 25 77 47 120 390 48 1057\nleaf_count=334 7097 428 288 33 455 111 502 25 77 47 120 390 48 1057\ninternal_value=0 -0.00128136 -0.00160119 0.00367392 -0.00184605 0.00779907 0.00872649 0.00505645 0.0103074 0.00735793 0.00668745 0.00768043 0.0115733 -0.00205199\ninternal_weight=0 9460 9007 398 8609 1552 1218 453 110 716 621 501 95 8154\ninternal_count=11012 9460 9007 398 8609 1552 1218 453 110 716 621 501 95 8154\nis_linear=0\nshrinkage=0.05\n\n\nTree=33\nnum_leaves=15\nnum_cat=0\nsplit_feature=2 5 0 3 0 6 1 3 0 2 1 0 0 0\nsplit_gain=43.3606 8.35357 3.78456 2.72496 2.35184 1.8717 1.57235 1.24942 1.00013 0.963672 0.930238 1.04475 1.2617 0.890573\nthreshold=3.5000000000000004 1.0000000180025095e-35 3.5205000000000006 5.5000000000000009 3.8050000000000002 inf 160.50000000000003 5.5000000000000009 3.5450000000000004 2.5000000000000004 161.50000000000003 3.8450000000000002 3.9545000000000008 2.6050000000000004\ndecision_type=8 10 8 8 10 8 10 10 8 10 8 10 10 8\nleft_child=5 2 6 -4 8 -1 13 -3 -5 -7 -6 -12 -13 -2\nright_child=1 7 3 4 10 9 -8 -9 -10 -11 11 12 -14 -15\nleaf_value=0.0043760199274955605 -0.01094947217939481 0.0043226508151036677 0.0033493213290595315 0.005708854630843827 -0.003461873468934356 0.0093513177878107017 0.0036954676518904297 0.01128567536251629 -0.0017515634536903878 0.0056585151626991391 0.0058866450783773162 -0.00075257343900552354 0.0032594275469615625 -0.0039351982266372749\nleaf_weight=334 47 314 325 44 110 986 65 83 6089 232 112 520 312 1439\nleaf_count=334 47 314 325 44 110 986 65 83 6089 232 112 520 312 1439\ninternal_value=0 -0.00127185 -0.00158347 -0.00111796 -0.0013211 0.00774253 -0.00383271 0.00581566 -0.0016963 0.00865725 0.000856903 0.00136857 0.000748031 -0.00416763\ninternal_weight=0 9460 9063 7512 7187 1552 1551 397 6133 1218 1054 944 832 1486\ninternal_count=11012 9460 9063 7512 7187 1552 1551 397 6133 1218 1054 944 832 1486\nis_linear=0\nshrinkage=0.05\n\n\nTree=34\nnum_leaves=15\nnum_cat=0\nsplit_feature=2 5 0 3 0 6 1 3 0 2 1 0 0 0\nsplit_gain=42.7354 8.19689 3.71124 2.68146 2.29951 1.81889 1.53857 1.22576 0.977379 0.954199 0.908315 1.02042 1.245 0.87022\nthreshold=3.5000000000000004 1.0000000180025095e-35 3.5205000000000006 5.5000000000000009 3.8050000000000002 inf 160.50000000000003 5.5000000000000009 3.5450000000000004 2.5000000000000004 161.50000000000003 3.8450000000000002 3.8750000000000004 2.6050000000000004\ndecision_type=8 10 8 8 10 8 10 10 8 8 8 8 10 10\nleft_child=5 2 6 -4 8 -1 13 -3 -5 -7 -6 -12 -13 -2\nright_child=1 7 3 4 10 9 -8 -9 -10 -11 11 12 -14 -15\nleaf_value=0.0043670692629945709 -0.010834676952423175 0.0042791972994644534 0.0033212750658219584 0.0056374106878371794 -0.0034255528569984749 0.0092791845338752298 0.0036479088028543855 0.011176528128212813 -0.0017373237858383257 0.0056047812949288379 0.0058127600474985781 -0.003990800273625356 0.0015265971492954597 -0.0038999961818928482\nleaf_weight=334 47 314 325 44 110 986 65 83 6089 232 112 118 714 1439\nleaf_count=334 47 314 325 44 110 986 65 83 6089 232 112 118 714 1439\ninternal_value=0 -0.00126247 -0.00157116 -0.00111016 -0.00131169 0.0076867 -0.00379852 0.00575823 -0.00168269 0.00858857 0.000841912 0.00134757 0.000734228 -0.00412983\ninternal_weight=0 9460 9063 7512 7187 1552 1551 397 6133 1218 1054 944 832 1486\ninternal_count=11012 9460 9063 7512 7187 1552 1551 397 6133 1218 1054 944 832 1486\nis_linear=0\nshrinkage=0.05\n\n\nTree=35\nnum_leaves=15\nnum_cat=0\nsplit_feature=2 5 4 0 0 11 1 2 5 5 1 11 4 1\nsplit_gain=42.1216 8.04338 6.4661 3.44127 2.08925 1.271 1.51341 1.10217 1.41986 1.08868 0.897762 0.875398 0.709125 0.675265\nthreshold=3.5000000000000004 1.0000000180025095e-35 1.0000000180025095e-35 3.8050000000000002 3.0050000000000003 1.0000000180025095e-35 168.50000000000003 2.5000000000000004 1.0000000180025095e-35 inf 163.50000000000003 1.0000000180025095e-35 1.0000000180025095e-35 161.50000000000003\ndecision_type=8 10 2 10 8 2 10 8 8 8 10 2 2 8\nleft_child=7 2 3 4 -2 6 -6 8 -1 -9 13 12 -3 -5\nright_child=1 11 -4 10 5 -7 -8 9 -10 -11 -12 -13 -14 -15\nleaf_value=0.00025974450389506918 -0.0062405378680703083 0.0031640754131414153 0.0046452977168831722 -0.0033896023882373644 -0.0022644774279434736 0.0011331536962377641 0.0043564948883881415 0.010007149188908257 0.0086490746666493395 0.0030293354554732596 0.0046207096900691995 0.0091915153082624095 0.011833780415635022 0.00076571526749655836\nleaf_weight=54 310 246 400 110 6914 299 86 76 1198 224 135 125 26 809\nleaf_count=54 310 246 400 110 6914 299 86 76 1198 224 135 125 26 809\ninternal_value=0 -0.00125318 -0.00155897 -0.00184653 -0.00221757 -0.00204519 -0.00218181 0.00763147 0.00829172 0.00484103 0.000826919 0.00570143 0.00405142 0.000259765\ninternal_weight=0 9460 9063 8663 7609 7299 7000 1552 1252 300 1054 397 272 919\ninternal_count=11012 9460 9063 8663 7609 7299 7000 1552 1252 300 1054 397 272 919\nis_linear=0\nshrinkage=0.05\n\n\nTree=36\nnum_leaves=15\nnum_cat=0\nsplit_feature=10 5 4 0 0 5 6 4 1 11 6 1 1 11\nsplit_gain=39.629 6.92922 5.94292 3.37587 2.03896 1.78091 1.51863 1.91358 1.2227 1.17165 1.07427 0.880282 0.805872 0.788201\nthreshold=1.0000000180025095e-35 1.0000000180025095e-35 1.0000000180025095e-35 3.8050000000000002 3.0050000000000003 1.0000000180025095e-35 inf 1.0000000180025095e-35 168.50000000000003 1.0000000180025095e-35 1.0000000180025095e-35 163.50000000000003 169.50000000000003 1.0000000180025095e-35\ndecision_type=2 10 2 10 8 10 8 2 10 2 8 10 10 2\nleft_child=1 2 3 4 -1 6 -2 -8 9 10 -6 -5 -7 -3\nright_child=5 13 -4 11 8 12 7 -9 -10 -11 -12 -13 -14 -15\nleaf_value=-0.0061803592821432374 0.0028474525856303037 0.0037437645713376076 0.0046096954313143554 0.00024919935076792791 0.0078753957404628771 0.011557725979785705 0.0054947650458659816 0.0097827387606510934 0.0038072236056158658 0.0010954048169608437 -0.0022744619832093522 0.0045674668115092817 0.0022962194147575659 0.0087652786481507462\nleaf_weight=310 269 266 372 919 25 255 730 419 87 272 6809 135 28 116\nleaf_count=310 269 266 372 919 25 255 730 419 87 272 6809 135 28 116\ninternal_value=0 -0.00128247 -0.00156523 -0.00183476 -0.00220713 0.00701504 0.00627501 0.00706993 -0.00203437 -0.00210712 -0.00223545 0.000810843 0.0106703 0.00530058\ninternal_weight=0 9311 8929 8557 7503 1701 1418 1149 7193 7106 6834 1054 283 382\ninternal_count=11012 9311 8929 8557 7503 1701 1418 1149 7193 7106 6834 1054 283 382\nis_linear=0\nshrinkage=0.05\n\n\nTree=37\nnum_leaves=15\nnum_cat=0\nsplit_feature=2 5 4 0 0 6 3 4 3 5 2 3 0 0\nsplit_gain=40.9725 7.76069 6.26919 3.29025 2.00111 1.71106 1.236 1.1778 1.17325 1.00129 0.973366 0.834058 0.772194 0.666687\nthreshold=3.5000000000000004 1.0000000180025095e-35 1.0000000180025095e-35 3.8050000000000002 3.0050000000000003 inf 1.0000000180025095e-35 1.0000000180025095e-35 5.5000000000000009 1.0000000180025095e-35 2.5000000000000004 4.5000000000000009 4.0500000000000007 3.5205000000000006\ndecision_type=8 10 2 10 8 8 10 2 10 10 8 8 8 10\nleft_child=5 2 3 4 -2 -1 13 9 -3 10 11 -7 -9 -6\nright_child=1 8 -4 -5 6 7 -8 12 -10 -11 -12 -13 -14 -15\nleaf_value=0.0043056718749505517 -0.006119381500190809 0.0041483579630372551 0.0045730234265777044 0.00079489621252754853 -0.0023778166666404833 0.011159938335392182 0.0011209148522056051 0.0017696288977771459 0.010896783461224914 0.012362707678681596 0.0022960891729697816 0.0061811048060226772 0.01076316274813433 -0.0010998291106220296\nleaf_weight=334 310 314 400 1054 5736 114 299 27 83 81 124 397 475 1264\nleaf_count=334 310 314 400 1054 5736 114 299 27 83 81 124 397 475 1264\ninternal_value=0 -0.00123562 -0.001536 -0.00181914 -0.00218195 0.00752701 -0.00201323 0.008402 0.00559563 0.0070561 0.00635296 0.00732124 0.0102939 -0.00214795\ninternal_weight=0 9460 9063 8663 7609 1552 7299 1218 397 716 635 511 502 7000\ninternal_count=11012 9460 9063 8663 7609 1552 7299 1218 397 716 635 511 502 7000\nis_linear=0\nshrinkage=0.05\n\n\nTree=38\nnum_leaves=15\nnum_cat=0\nsplit_feature=2 5 4 1 6 11 4 3 5 2 3 8 3 6\nsplit_gain=40.3868 7.61999 6.17359 2.27409 1.66415 1.36852 1.15674 1.1516 0.978045 0.961825 0.816124 0.695399 0.645388 0.578268\nthreshold=3.5000000000000004 1.0000000180025095e-35 1.0000000180025095e-35 161.50000000000003 inf 1.0000000180025095e-35 1.0000000180025095e-35 5.5000000000000009 1.0000000180025095e-35 2.5000000000000004 4.5000000000000009 1.0000000180025095e-35 8.0000000000000018 1.0000000180025095e-35\ndecision_type=8 10 2 10 8 2 2 10 10 8 8 2 10 8\nleft_child=4 2 3 5 -1 13 8 -3 9 10 -6 -8 -4 -2\nright_child=1 7 12 -5 6 -7 11 -9 -10 -11 -12 -13 -14 -15\nleaf_value=0.0042954066355885686 0.0045464605855244766 0.0041083443871059817 0.0050174800695476206 0.0016188100945698565 0.011067783076110106 0.0013214343631005781 0.010666545776111605 0.010794764912446776 0.012248251644618513 0.0022739997800412799 0.0061411176620847488 0.0022319357463350615 -0.0037228621996101907 -0.0021495180595078466\nleaf_weight=334 31 314 379 457 114 297 474 83 81 124 397 28 21 7878\nleaf_count=334 31 314 379 457 114 297 474 83 81 124 397 28 21 7878\ninternal_value=0 -0.00122659 -0.00152423 -0.00180521 0.00747319 -0.00199668 0.00833626 0.00554243 0.00700218 0.00630693 0.00726945 0.0102114 0.004538 -0.00212207\ninternal_weight=0 9460 9063 8663 1552 8206 1218 397 716 635 511 502 400 7909\ninternal_count=11012 9460 9063 8663 1552 8206 1218 397 716 635 511 502 400 7909\nis_linear=0\nshrinkage=0.05\n\n\nTree=39\nnum_leaves=15\nnum_cat=0\nsplit_feature=10 5 4 1 5 6 4 3 11 6 3 3 6 3\nsplit_gain=37.9316 6.54817 5.68628 2.25095 1.69531 1.41088 1.80405 1.18024 1.09936 1.03096 1.0095 0.80985 0.771891 0.638103\nthreshold=1.0000000180025095e-35 1.0000000180025095e-35 1.0000000180025095e-35 161.50000000000003 1.0000000180025095e-35 inf 1.0000000180025095e-35 5.5000000000000009 1.0000000180025095e-35 1.0000000180025095e-35 4.5000000000000009 4.5000000000000009 1.0000000180025095e-35 8.0000000000000018\ndecision_type=2 10 2 10 10 8 2 10 2 8 8 8 8 10\nleft_child=1 2 3 8 5 -2 10 -3 9 -1 -7 -6 -13 -4\nright_child=4 7 13 -5 11 6 -8 -9 -10 -11 -12 12 -14 -15\nleaf_value=0.0078133711044087468 0.0028355714900646376 0.0036896115110924411 0.005024600519909877 0.0016205250459771015 0.0050081088496545696 0.0090649471306775836 0.0095426112644615684 0.010636620097665753 0.001118545634583034 -0.0021275528644803371 0.0044016642988556169 0.0062158569898097095 0.013515834836989824 -0.0036844681530640274\nleaf_weight=25 269 304 351 455 60 150 419 78 273 7804 580 53 170 21\nleaf_count=25 269 304 351 455 60 150 419 78 273 7804 580 53 170 21\ninternal_value=0 -0.00125416 -0.00152904 -0.0017927 0.00686371 0.00614142 0.00690789 0.00514523 -0.00198518 -0.00209418 0.0053778 0.0104308 0.0118387 0.00451099\ninternal_weight=0 9311 8929 8557 1701 1418 1149 382 8102 7829 730 283 223 372\ninternal_count=11012 9311 8929 8557 1701 1418 1149 382 8102 7829 730 283 223 372\nis_linear=0\nshrinkage=0.05\n\n\nTree=40\nnum_leaves=15\nnum_cat=0\nsplit_feature=2 5 0 3 0 6 3 0 2 0 0 0 0 0\nsplit_gain=39.271 7.34887 3.48551 2.48215 2.09155 1.57631 1.1087 0.945624 0.937786 0.909645 0.775818 0.746473 0.687273 0.756974\nthreshold=3.5000000000000004 1.0000000180025095e-35 3.5205000000000006 5.5000000000000009 3.9545000000000008 inf 5.5000000000000009 3.9260000000000006 2.5000000000000004 2.6050000000000004 3.9650000000000003 3.9350000000000005 3.5450000000000004 3.8050000000000002\ndecision_type=8 10 8 8 10 8 10 8 10 8 10 8 10 10\nleft_child=5 2 9 -4 7 -1 -3 12 -7 -2 -6 -9 -5 -14\nright_child=1 6 3 4 10 8 -8 11 -10 -11 -12 -13 13 -15\nleaf_value=0.0042750422653741391 -0.010504366453388281 0.0040306999722248922 0.0032087576572320587 0.005623721443129919 0.0089845863382031245 0.008893727313557474 0.010592570646968544 -0.0085559870478014253 0.0052564510205417416 -0.0034359759201095571 0.0016161623097467896 -0.001743114073086274 -0.0013234841462581742 0.00088348463415363621\nleaf_weight=334 47 314 325 44 40 986 83 40 232 1504 315 4957 1226 565\nleaf_count=334 47 314 325 44 40 986 83 40 232 1504 315 4957 1226 565\ninternal_value=0 -0.00120915 -0.00150145 -0.00105468 -0.00124859 0.00736961 0.00543831 -0.00144358 0.00820989 -0.00366002 0.00248336 -0.00180035 -0.000468843 -0.000624365\ninternal_weight=0 9460 9063 7512 7187 1552 397 6832 1218 1551 355 4997 1835 1791\ninternal_count=11012 9460 9063 7512 7187 1552 397 6832 1218 1551 355 4997 1835 1791\nis_linear=0\nshrinkage=0.05\n\n\nTree=41\nnum_leaves=15\nnum_cat=0\nsplit_feature=2 5 4 0 0 6 11 1 4 5 2 1 0 0\nsplit_gain=38.7103 7.21349 5.97282 3.1389 1.92767 1.53189 1.16433 1.41002 1.11405 0.931613 0.950818 0.853568 0.993705 1.21811\nthreshold=3.5000000000000004 1.0000000180025095e-35 1.0000000180025095e-35 3.8050000000000002 3.0050000000000003 inf 1.0000000180025095e-35 168.50000000000003 1.0000000180025095e-35 1.0000000180025095e-35 2.5000000000000004 161.50000000000003 3.8450000000000002 3.8750000000000004\ndecision_type=8 10 2 10 8 8 2 10 2 10 8 8 10 8\nleft_child=5 2 3 4 -2 -1 7 -6 9 10 -7 -5 -13 -14\nright_child=1 -3 -4 11 6 8 -8 -9 -10 -11 -12 12 13 -15\nleaf_value=0.0042653673319635235 -0.0059852070578313016 0.0053856050920976124 0.0044728823836983275 -0.0033498450922595348 -0.0021656453799578711 0.0071138655802127082 0.0010865300961390232 0.004224611343507172 0.0099858677761058973 0.011957744000776234 0.0021492657069513803 0.0056830904114602973 -0.0040019138307083374 0.0014559222574978897\nleaf_weight=334 310 397 400 110 6914 511 299 86 502 81 124 112 118 714\nleaf_count=334 310 397 400 110 6914 511 299 86 502 81 124 112 118 714\ninternal_value=0 -0.00120031 -0.00148992 -0.0017663 -0.00212068 0.00731699 -0.00195506 -0.00208583 0.00814552 0.00683611 0.00615717 0.000786837 0.00127719 0.000671977\ninternal_weight=0 9460 9063 8663 7609 1552 7299 7000 1218 716 635 1054 944 832\ninternal_count=11012 9460 9063 8663 7609 1552 7299 7000 1218 716 635 1054 944 832\nis_linear=0\nshrinkage=0.05\n\n\nTree=42\nnum_leaves=15\nnum_cat=0\nsplit_feature=2 5 4 0 0 6 4 1 5 2 1 0 0 0\nsplit_gain=38.1601 7.08038 5.88218 3.06959 1.88667 1.48972 1.09453 1.08365 0.910458 0.939523 0.837707 0.770029 0.894198 0.814927\nthreshold=3.5000000000000004 1.0000000180025095e-35 1.0000000180025095e-35 3.8050000000000002 3.0050000000000003 inf 1.0000000180025095e-35 168.50000000000003 1.0000000180025095e-35 2.5000000000000004 163.50000000000003 3.5205000000000006 3.6430000000000002 3.0900000000000003\ndecision_type=8 10 2 10 8 8 2 10 10 10 10 8 8 8\nleft_child=5 2 3 4 -2 -1 8 11 9 -7 -5 13 -13 -6\nright_child=1 -3 -4 10 7 6 -8 -9 -10 -11 -12 12 -14 -15\nleaf_value=0.004254727798024876 -0.0059265404202111342 0.0053332704769540459 0.0044388622544714908 0.00022398330006960293 0.0027638088524972074 0.0070635560683923269 0.0099065961044594551 0.0034970088282323107 0.011848549658666612 0.0021283443305118942 0.0044365037884699626 0.00043202719202745034 -0.0019397717358947001 -0.0034297990852057655\nleaf_weight=334 310 397 400 919 54 511 502 89 81 124 135 424 5555 1177\nleaf_count=334 310 397 400 919 54 511 502 89 81 124 135 424 5555 1177\ninternal_value=0 -0.00119157 -0.00147849 -0.00175278 -0.00210322 0.00726498 0.00808218 -0.00193936 0.00678405 0.00611255 0.000771971 -0.00200763 -0.0017707 -0.00315202\ninternal_weight=0 9460 9063 8663 7609 1552 1218 7299 716 635 1054 7210 5979 1231\ninternal_count=11012 9460 9063 8663 7609 1552 1218 7299 716 635 1054 7210 5979 1231\nis_linear=0\nshrinkage=0.05\n\n\nTree=43\nnum_leaves=15\nnum_cat=0\nsplit_feature=2 5 4 0 0 11 1 2 5 5 1 0 0 11\nsplit_gain=37.6231 6.94867 5.78853 3.00212 1.84701 1.15019 1.35151 1.10031 1.34405 1.02519 0.830554 0.970403 1.19164 0.798503\nthreshold=3.5000000000000004 1.0000000180025095e-35 1.0000000180025095e-35 3.8050000000000002 3.0050000000000003 1.0000000180025095e-35 168.50000000000003 2.5000000000000004 1.0000000180025095e-35 inf 161.50000000000003 3.8450000000000002 3.9545000000000008 1.0000000180025095e-35\ndecision_type=8 10 2 10 8 2 10 8 8 8 8 10 8 2\nleft_child=7 2 3 4 -2 6 -6 8 -1 -9 -5 -12 -13 -3\nright_child=1 13 -4 10 5 -7 -8 9 -10 -11 11 12 -14 -15\nleaf_value=6.1271636604626588e-05 -0.0058689073402684484 0.0037052051595719837 0.004402817503368078 -0.0033230077604682867 -0.0021318678912172931 0.0010993201464499635 0.0041239513307307248 0.009440980852264599 0.0082202345571319724 0.0026744671443186701 0.0055950765886411628 -0.00081502877938385029 0.0030843382279083301 0.0086132173276904939\nleaf_weight=54 310 272 400 110 6914 299 86 76 1198 224 112 520 312 125\nleaf_count=54 310 272 400 110 6914 299 86 76 1198 224 112 520 312 125\ninternal_value=0 -0.00118297 -0.00146721 -0.00173931 -0.00208588 -0.00192374 -0.00205372 0.00721387 0.00787265 0.00443093 0.000757495 0.00124128 0.000643179 0.00528087\ninternal_weight=0 9460 9063 8663 7609 7299 7000 1552 1252 300 1054 944 832 397\ninternal_count=11012 9460 9063 8663 7609 7299 7000 1552 1252 300 1054 944 832 397\nis_linear=0\nshrinkage=0.05\n\n\nTree=44\nnum_leaves=15\nnum_cat=0\nsplit_feature=2 5 4 1 6 3 4 3 5 2 3 8 3 6\nsplit_gain=37.0987 6.82415 5.69997 2.06595 1.43639 1.27933 1.07933 1.07799 0.883237 0.917677 0.786813 0.689488 0.621109 0.56161\nthreshold=3.5000000000000004 1.0000000180025095e-35 1.0000000180025095e-35 161.50000000000003 inf 1.0000000180025095e-35 1.0000000180025095e-35 5.5000000000000009 1.0000000180025095e-35 2.5000000000000004 4.5000000000000009 1.0000000180025095e-35 8.0000000000000018 1.0000000180025095e-35\ndecision_type=8 10 2 10 8 10 2 10 10 8 8 2 10 8\nleft_child=4 2 3 5 -1 13 8 -3 9 10 -6 -8 -4 -2\nright_child=1 7 12 -5 6 -7 11 -9 -10 -11 -12 -13 -14 -15\nleaf_value=0.0042068246852441258 0.0045419171304695912 0.0038437642101580571 0.0048394099710396214 0.0015370469891842257 0.0106824848093725 0.0012991667949089946 0.010230099134726155 0.010311833213686302 0.011666421876830908 0.0020779413676737741 0.0058486820194982633 0.001855916393978923 -0.0037328545890138124 -0.0020570465598439688\nleaf_weight=334 31 314 379 457 114 297 474 83 81 124 397 28 21 7878\nleaf_count=334 31 314 379 457 114 297 474 83 81 124 397 28 21 7878\ninternal_value=0 -0.00117452 -0.00145622 -0.00172622 0.00716359 -0.00190873 0.00796618 0.0052311 0.00667734 0.00601573 0.00695559 0.00977757 0.00436871 -0.00202998\ninternal_weight=0 9460 9063 8663 1552 8206 1218 397 716 635 511 502 400 7909\ninternal_count=11012 9460 9063 8663 1552 8206 1218 397 716 635 511 502 400 7909\nis_linear=0\nshrinkage=0.05\n\n\nTree=45\nnum_leaves=15\nnum_cat=0\nsplit_feature=2 5 4 6 4 3 3 5 2 3 9 8 3 6\nsplit_gain=36.5735 6.70123 5.6156 1.3973 1.06056 1.05859 1.00703 0.863275 0.906839 0.770185 0.742872 0.675652 0.610564 0.545442\nthreshold=3.5000000000000004 1.0000000180025095e-35 1.0000000180025095e-35 inf 1.0000000180025095e-35 5.5000000000000009 1.0000000180025095e-35 1.0000000180025095e-35 2.5000000000000004 4.5000000000000009 1.0000000180025095e-35 1.0000000180025095e-35 8.0000000000000018 1.0000000180025095e-35\ndecision_type=8 10 2 8 2 10 10 10 8 8 2 2 10 8\nleft_child=3 2 6 -1 7 -3 10 8 9 -5 13 -6 -4 -2\nright_child=1 5 12 4 11 -7 -8 -9 -10 -11 -12 -13 -14 -15\nleaf_value=0.0041957189196529842 0.004505759945314847 0.0038066544752000313 0.004803226902644963 0.010595076234509795 0.010148503981146051 0.010216763842582422 0.001119847364532672 0.011560544743695646 0.0020577718234128135 0.0058110730756140939 -0.00036834147804850454 0.0018552300483527418 -0.0036948999259032236 -0.0019978896134250561\nleaf_weight=334 31 314 379 114 474 83 300 81 124 397 810 28 21 7522\nleaf_count=334 31 314 379 114 474 83 300 81 124 397 810 28 21 7522\ninternal_value=0 -0.00116598 -0.00144513 0.0071129 0.00790465 0.00518167 -0.00171313 0.00662682 0.00597243 0.00690672 -0.00181548 0.00970048 0.0043365 -0.00196994\ninternal_weight=0 9460 9063 1552 1218 397 8663 716 635 511 8363 502 400 7553\ninternal_count=11012 9460 9063 1552 1218 397 8663 716 635 511 8363 502 400 7553\nis_linear=0\nshrinkage=0.05\n\n\nTree=46\nnum_leaves=15\nnum_cat=0\nsplit_feature=2 5 4 1 11 2 5 3 5 3 4 1 8 4\nsplit_gain=36.055 6.58082 5.53234 2.00077 1.24673 1.0861 1.30305 1.03962 0.992781 0.600206 0.546303 0.473254 0.457354 0.365121\nthreshold=3.5000000000000004 1.0000000180025095e-35 1.0000000180025095e-35 161.50000000000003 1.0000000180025095e-35 2.5000000000000004 1.0000000180025095e-35 5.5000000000000009 inf 8.0000000000000018 1.0000000180025095e-35 154.50000000000003 1.0000000180025095e-35 1.0000000180025095e-35\ndecision_type=8 10 2 10 2 10 8 10 8 10 2 8 2 2\nleft_child=5 2 3 4 11 6 -1 10 -7 -4 -3 -2 -5 -8\nright_child=1 7 9 12 -6 8 13 -9 -10 -11 -12 -13 -14 -15\nleaf_value=2.5126715297094725e-05 -0.0049088328854917426 0.0028904172719697607 0.0047672420541027445 -0.0010466410322329956 0.0012869026478454027 0.0092283556654810771 0.0071770675996397932 0.010122906052907396 0.0025702436666667737 -0.0036574220152733776 0.0090080470312785665 -0.0019461261864603726 0.0024788487108815468 0.0090604905650268595\nleaf_weight=54 139 271 379 124 297 76 644 83 224 21 43 7770 333 554\nleaf_count=54 139 271 379 124 297 76 644 83 224 21 43 7770 333 554\ninternal_value=0 -0.00115749 -0.00143412 -0.00170014 -0.00187975 0.00706249 0.00771681 0.00513284 0.00429863 0.00430446 0.00376999 -0.00199944 0.00151115 0.00805903\ninternal_weight=0 9460 9063 8663 8206 1552 1252 397 300 400 314 7909 457 1198\ninternal_count=11012 9460 9063 8663 8206 1552 1252 397 300 400 314 7909 457 1198\nis_linear=0\nshrinkage=0.05\n\n\nTree=47\nnum_leaves=15\nnum_cat=0\nsplit_feature=2 4 11 0 0 6 1 4 0 0 1 0 0 0\nsplit_gain=35.558 6.33381 3.75258 2.82534 1.83791 1.35018 1.21824 1.03471 0.81141 0.857555 0.800468 0.950933 1.17612 0.795507\nthreshold=3.5000000000000004 1.0000000180025095e-35 1.0000000180025095e-35 3.8050000000000002 3.0050000000000003 inf 168.50000000000003 1.0000000180025095e-35 3.5205000000000006 3.6430000000000002 161.50000000000003 3.8450000000000002 3.8750000000000004 3.0900000000000003\ndecision_type=8 2 2 10 8 8 10 2 8 8 8 10 8 10\nleft_child=5 2 3 4 -2 -1 8 -7 13 -10 -5 -12 -13 -6\nright_child=1 -3 -4 10 6 7 -8 -9 9 -11 11 12 -14 -15\nleaf_value=0.0041455030553154311 -0.0057709320894581678 0.0046107643797214971 0.0032968248728091377 -0.0032429235174252532 0.0027635456263337826 0.0065299244789137172 0.0040307318638958005 0.0095662023883530227 0.0004914174108451608 -0.0018295554127153533 0.005547583716294607 -0.0039470272770290747 0.0014164620478197072 -0.003355551535127778\nleaf_weight=334 310 453 398 110 54 716 86 502 425 5505 112 118 713 1176\nleaf_count=334 310 453 398 110 54 716 86 502 425 5505 112 118 713 1176\ninternal_value=0 -0.00114929 -0.00144003 -0.00165995 -0.00199825 0.00701384 -0.00183538 0.00779225 -0.00190709 -0.00166231 0.0007624 0.00123785 0.000645021 -0.00308082\ninternal_weight=0 9460 9007 8609 7556 1552 7246 1218 7160 5930 1053 943 831 1230\ninternal_count=11012 9460 9007 8609 7556 1552 7246 1218 7160 5930 1053 943 831 1230\nis_linear=0\nshrinkage=0.05\n\n\nTree=48\nnum_leaves=15\nnum_cat=0\nsplit_feature=2 5 4 0 0 6 11 1 4 5 2 1 0 0\nsplit_gain=35.0444 6.44578 5.3679 2.85344 1.76763 1.3135 1.06237 1.25806 1.01691 0.835976 0.895775 0.785562 0.924307 1.15714\nthreshold=3.5000000000000004 1.0000000180025095e-35 1.0000000180025095e-35 3.8050000000000002 3.0050000000000003 inf 1.0000000180025095e-35 168.50000000000003 1.0000000180025095e-35 1.0000000180025095e-35 2.5000000000000004 161.50000000000003 3.8450000000000002 3.8750000000000004\ndecision_type=8 10 2 10 8 8 2 10 2 10 8 8 8 10\nleft_child=5 2 3 4 -2 -1 7 -6 9 10 -7 -5 -13 -14\nright_child=1 -3 -4 11 6 8 -8 -9 -10 -11 -12 12 13 -15\nleaf_value=0.0041331669702112201 -0.0057153613148487508 0.0050846603555060321 0.0042380372681664258 -0.0032104222611559203 -0.0020562030102634181 0.0067637453726917696 0.0010490449830924378 0.0039787835116983691 0.0094899614574107134 0.0113345798865052 0.0019463487885881968 0.0054775281422250466 -0.003911047776135131 0.0014083893478320975\nleaf_weight=334 310 397 400 110 6914 511 299 86 502 81 124 112 118 714\nleaf_count=334 310 397 400 110 6914 511 299 86 502 81 124 112 118 714\ninternal_value=0 -0.00114078 -0.00141456 -0.0016766 -0.00201449 0.00696319 -0.00185586 -0.00198079 0.00773111 0.00647945 0.00583543 0.000757524 0.00122809 0.000644158\ninternal_weight=0 9460 9063 8663 7609 1552 7299 7000 1218 716 635 1054 944 832\ninternal_count=11012 9460 9063 8663 7609 1552 7299 7000 1218 716 635 1054 944 832\nis_linear=0\nshrinkage=0.05\n\n\nTree=49\nnum_leaves=15\nnum_cat=0\nsplit_feature=10 4 5 0 3 0 5 4 3 3 3 3 0 0\nsplit_gain=32.8616 5.65037 4.79382 2.79519 1.7667 1.72659 1.51545 1.148 1.51655 0.851625 0.813757 0.770908 0.585944 1.01467\nthreshold=1.0000000180025095e-35 1.0000000180025095e-35 1.0000000180025095e-35 3.8050000000000002 5.5000000000000009 3.0050000000000003 1.0000000180025095e-35 1.0000000180025095e-35 4.5000000000000009 1.0000000180025095e-35 4.5000000000000009 8.0000000000000018 3.8450000000000002 3.9545000000000008\ndecision_type=2 2 10 10 10 8 10 2 8 10 8 10 10 8\nleft_child=1 2 3 5 -4 -1 7 8 -2 -7 -8 -3 -5 -14\nright_child=6 11 4 12 -6 9 10 -9 -10 -11 -12 -13 13 -15\nleaf_value=-0.00565936383318617 0.0087326963578027821 0.0050289820716247794 0.0025481678465028648 0.0038759630150695143 0.0115914065925301 -0.0019519005270200495 0.0043553926427650092 0.0074756289299470315 0.0034466631795542465 0.00088021361913274271 0.011170193111703419 -0.0038008929697820578 -0.0010088439844366021 0.0023915572996090727\nleaf_weight=310 172 396 265 130 68 6920 60 564 682 273 223 25 569 355\nleaf_count=310 172 396 265 130 68 6920 60 564 682 273 223 25 569 355\ninternal_value=0 -0.00116555 -0.00143418 -0.00166381 0.00443898 -0.00200266 0.00639034 0.00570723 0.00452611 -0.00184361 0.00976339 0.00448503 0.000743227 0.000293355\ninternal_weight=0 9311 8890 8557 333 7503 1701 1418 854 7193 283 421 1054 924\ninternal_count=11012 9311 8890 8557 333 7503 1701 1418 854 7193 283 421 1054 924\nis_linear=0\nshrinkage=0.05\n\n\nTree=50\nnum_leaves=15\nnum_cat=0\nsplit_feature=2 4 11 12 1 6 4 8 12 2 11 1 11 6\nsplit_gain=34.0942 6.05678 3.5961 2.07568 2.01505 1.27765 0.983379 0.668471 0.549475 0.904794 0.529128 0.511684 0.501979 0.458787\nthreshold=3.5000000000000004 1.0000000180025095e-35 1.0000000180025095e-35 1.0000000180025095e-35 161.50000000000003 inf 1.0000000180025095e-35 1.0000000180025095e-35 1.0000000180025095e-35 2.5000000000000004 1.0000000180025095e-35 154.50000000000003 1.0000000180025095e-35 1.0000000180025095e-35\ndecision_type=8 2 2 2 10 8 2 2 2 8 2 8 2 8\nleft_child=5 2 4 -4 11 -1 8 -8 9 12 -10 -2 -7 -13\nright_child=1 -3 3 -5 -6 6 7 -9 10 -11 -12 13 -14 -15\nleaf_value=0.0040769011531250612 -0.0048262320792951856 0.0045077675461844989 0.00096588617839855862 0.00904273141957199 0.0016053336101410733 0.0055919236055717797 0.00980121681240048 0.0015698110199394589 0.014408237006733474 0.0018384962802093512 0.0064153219261410864 0.0038439254417923841 0.0091209709310109705 -0.0017775255610903073\nleaf_weight=334 139 453 288 110 455 340 474 28 41 120 54 35 161 7980\nleaf_count=334 139 453 288 110 455 340 474 28 41 120 54 35 161 7980\ninternal_value=0 -0.00112486 -0.00140917 0.00322778 -0.00162447 0.00686848 0.00762592 0.00935607 0.00639455 0.00581495 0.0100311 -0.00180548 0.00675188 -0.00175188\ninternal_weight=0 9460 9007 398 8609 1552 1218 502 716 621 95 8154 501 8015\ninternal_count=11012 9460 9007 398 8609 1552 1218 502 716 621 95 8154 501 8015\nis_linear=0\nshrinkage=0.05\n\n\nTree=51\nnum_leaves=15\nnum_cat=0\nsplit_feature=2 4 3 0 0 1 6 4 0 1 1 3 0 0\nsplit_gain=33.6116 5.96673 3.54068 2.63761 1.76385 1.3261 1.24327 0.966702 0.958688 0.856647 0.776852 0.764591 0.75329 0.717693\nthreshold=3.5000000000000004 1.0000000180025095e-35 1.0000000180025095e-35 3.8050000000000002 3.5205000000000006 160.50000000000003 inf 1.0000000180025095e-35 3.6430000000000002 164.50000000000003 163.50000000000003 8.0000000000000018 2.6050000000000004 4.0500000000000007\ndecision_type=8 2 10 10 8 10 8 2 8 10 10 10 8 8\nleft_child=6 2 3 4 5 12 -1 -8 9 -6 -5 -3 -2 -9\nright_child=1 11 -4 10 8 -7 7 13 -10 -11 -12 -13 -14 -15\nleaf_value=0.0040652140029255636 -0.009992351672135448 0.0049763759976330681 0.0032021873484267358 0.00019944646419961583 0.0001934231964517682 0.003518673784834921 0.0063461090201323359 0.0010970963197216505 -0.0017258953738832428 0.010563082522397529 0.0042564548373066006 -0.0037966184212371752 -0.0035384008500068524 0.0097343833481032191\nleaf_weight=334 47 428 398 918 413 64 716 27 5575 20 135 25 1437 475\nleaf_count=334 47 428 398 918 413 64 716 27 5575 20 135 25 1437 475\ninternal_value=0 -0.00111667 -0.00139887 -0.0016125 -0.00193937 -0.00344683 0.00681989 0.00756722 -0.00154962 0.000707147 0.000727864 0.00447391 -0.00375276 0.00928287\ninternal_weight=0 9460 9007 8609 7556 1548 1552 1218 6008 433 1053 453 1484 502\ninternal_count=11012 9460 9007 8609 7556 1548 1552 1218 6008 433 1053 453 1484 502\nis_linear=0\nshrinkage=0.05\n\n\nTree=52\nnum_leaves=15\nnum_cat=0\nsplit_feature=2 5 4 0 0 6 3 1 4 3 5 2 1 0\nsplit_gain=33.133 6.15901 5.04592 2.66695 1.66773 1.20968 0.99266 1.20638 0.950688 0.948773 0.784955 0.887447 0.758451 0.8866\nthreshold=3.5000000000000004 1.0000000180025095e-35 1.0000000180025095e-35 3.8050000000000002 3.0050000000000003 inf 1.0000000180025095e-35 168.50000000000003 1.0000000180025095e-35 5.5000000000000009 1.0000000180025095e-35 2.5000000000000004 161.50000000000003 3.8450000000000002\ndecision_type=8 10 2 10 8 8 10 10 2 10 10 10 8 8\nleft_child=5 2 3 4 -2 -1 7 -6 10 -3 11 -7 -5 -14\nright_child=1 9 -4 12 6 8 -8 -9 -10 -11 -12 -13 13 -15\nleaf_value=0.0040532332139340934 -0.0055518518482454505 0.0036731926886933971 0.0041042021438301886 -0.0031759158981734927 -0.001997381750892186 0.0065965025866579867 0.0010048367419407062 0.0039120436982932136 0.0092102868435184736 0.0097466963447652363 0.011004625108248747 0.0018042867103700965 0.0053471916398777509 0.00061340246084831359\nleaf_weight=334 310 314 400 110 6914 511 299 86 502 83 81 124 112 832\nleaf_count=334 310 314 400 110 6914 511 299 86 502 83 81 124 112 832\ninternal_value=0 -0.0011085 -0.00137613 -0.0016302 -0.00195686 0.00677137 -0.00180275 -0.00192352 0.00750869 0.00497683 0.00629752 0.00567287 0.00072291 0.00118539\ninternal_weight=0 9460 9063 8663 7609 1552 7299 7000 1218 397 716 635 1054 944\ninternal_count=11012 9460 9063 8663 7609 1552 7299 7000 1218 397 716 635 1054 944\nis_linear=0\nshrinkage=0.05\n\n\nTree=53\nnum_leaves=15\nnum_cat=0\nsplit_feature=10 4 5 0 3 0 5 4 3 6 6 3 3 4\nsplit_gain=31.0247 5.32991 4.57311 2.61092 1.65692 1.6298 1.44671 1.07934 1.46743 1.13194 1.03082 0.802333 0.746336 0.72051\nthreshold=1.0000000180025095e-35 1.0000000180025095e-35 1.0000000180025095e-35 3.8050000000000002 5.5000000000000009 3.0050000000000003 1.0000000180025095e-35 1.0000000180025095e-35 4.5000000000000009 inf 1.0000000180025095e-35 4.5000000000000009 8.0000000000000018 2.0000000000000004\ndecision_type=2 2 10 10 10 8 10 2 8 8 8 8 10 2\nleft_child=1 2 3 5 -4 -1 7 8 -2 13 -7 -8 -3 -9\nright_child=6 12 4 -5 -6 10 11 9 -10 -11 -12 -13 -14 -15\nleaf_value=-0.0054974103822412572 0.008534299474528861 0.0048915989441440308 0.0025114050487216946 0.00070924323369175402 0.011271441328926388 0.0059976042593779056 0.0041422901754489842 0.0069221936467903922 0.00333481241688754 0.0085830047154557935 -0.0018360835065431066 0.010901664219951923 -0.0037949084056193858 -3.6743434357492076e-05\nleaf_weight=310 172 396 265 1054 68 41 60 71 682 419 7152 223 25 74\nleaf_count=310 172 396 265 1054 68 41 60 71 682 419 7152 223 25 74\ninternal_value=0 -0.00113176 -0.00139268 -0.00161697 0.0043436 -0.00194447 0.00620991 0.00554236 0.00439662 0.00725753 -0.00178991 0.00950582 0.00435615 0.00336056\ninternal_weight=0 9311 8890 8557 333 7503 1701 1418 854 564 7193 283 421 145\ninternal_count=11012 9311 8890 8557 333 7503 1701 1418 854 564 7193 283 421 145\nis_linear=0\nshrinkage=0.05\n\n\nTree=54\nnum_leaves=15\nnum_cat=0\nsplit_feature=2 4 11 0 12 0 1 6 0 12 4 1 12 3\nsplit_gain=32.2359 5.70413 3.40097 2.46904 1.95957 1.69709 1.29033 1.16144 0.935444 1.18078 0.912827 0.764021 0.931677 0.739596\nthreshold=3.5000000000000004 1.0000000180025095e-35 1.0000000180025095e-35 3.8050000000000002 1.0000000180025095e-35 3.5205000000000006 160.50000000000003 inf 3.6430000000000002 1.0000000180025095e-35 1.0000000180025095e-35 163.50000000000003 1.0000000180025095e-35 8.0000000000000018\ndecision_type=8 2 2 10 2 8 10 8 8 2 2 10 2 10\nleft_child=7 2 3 5 -4 6 -2 -1 9 -7 -9 12 -5 -3\nright_child=1 13 4 11 -6 8 -8 10 -10 -11 -12 -13 -14 -15\nleaf_value=0.0040148987627952161 -0.0036751075410865449 0.0048674080034027426 0.0009420251085664581 0.00070052164072277395 0.0087904747741101904 3.2788323326415424e-05 0.0034971630133285255 0.0062145226866014754 -0.0016864079582235337 0.010843307288884949 0.0090702231825774155 0.0041848698136142393 -0.0045760462310756875 -0.0037593655881551905\nleaf_weight=334 1484 428 288 826 110 407 64 716 5575 26 502 135 92 25\nleaf_count=334 1484 428 288 826 110 407 64 716 5575 26 502 135 92 25\ninternal_value=0 -0.00109304 -0.00136896 -0.00157835 0.00314032 -0.0018946 -0.00337329 0.00667941 -0.00151228 0.000716928 0.00740208 0.000685865 0.000161871 0.00437307\ninternal_weight=0 9460 9007 8609 398 7556 1548 1552 6008 433 1218 1053 918 453\ninternal_count=11012 9460 9007 8609 398 7556 1548 1552 6008 433 1218 1053 918 453\nis_linear=0\nshrinkage=0.05\n\n\nTree=55\nnum_leaves=15\nnum_cat=0\nsplit_feature=2 5 4 1 6 2 4 5 6 5 1 8 1 1\nsplit_gain=31.7746 5.90673 4.81186 1.74697 1.13028 0.899873 0.723536 0.5855 0.520977 0.49035 0.48741 0.431069 0.329939 0.675935\nthreshold=3.5000000000000004 1.0000000180025095e-35 1.0000000180025095e-35 161.50000000000003 inf 2.5000000000000004 1.0000000180025095e-35 inf 1.0000000180025095e-35 1.0000000180025095e-35 154.50000000000003 1.0000000180025095e-35 157.50000000000003 158.50000000000003\ndecision_type=8 10 2 10 8 10 2 8 8 8 8 2 8 8\nleft_child=4 2 3 8 9 6 -6 -7 -2 -1 -10 -5 -12 -14\nright_child=1 -3 -4 11 5 7 -8 -9 10 -11 12 -13 13 -15\nleaf_value=-0.0019271883302067775 0.0032963267490862002 0.0048743399703926951 0.0040045314748894997 -0.0010776879957538489 0.0067856074420206197 0.00932320301110315 0.0096278767670050936 0.003089294916598798 -0.0047437165445646384 0.0046081338419726361 0.0016210700898287873 0.0023450105525106638 -0.0093088519707952826 -0.0017431841625119356\nleaf_weight=30 49 397 400 124 565 49 421 183 139 304 70 333 29 7919\nleaf_count=30 49 397 400 124 565 49 421 183 139 304 70 333 29 7919\ninternal_value=0 -0.001085 -0.0013471 -0.00159522 0.00663165 0.00734472 0.00801278 0.00446176 -0.00176307 0.0040022 -0.00179447 0.00140507 -0.00174214 -0.00177259\ninternal_weight=0 9460 9063 8663 1552 1218 986 232 8206 334 8157 457 8018 7948\ninternal_count=11012 9460 9063 8663 1552 1218 986 232 8206 334 8157 457 8018 7948\nis_linear=0\nshrinkage=0.05\n\n\nTree=56\nnum_leaves=15\nnum_cat=0\nsplit_feature=10 4 5 0 0 5 11 1 4 6 6 0 1 1\nsplit_gain=29.7196 5.09788 4.36947 2.48982 1.5802 1.39994 1.25458 1.24502 1.03653 1.05111 0.947065 0.970328 0.825509 0.776314\nthreshold=1.0000000180025095e-35 1.0000000180025095e-35 1.0000000180025095e-35 3.8050000000000002 3.5205000000000006 1.0000000180025095e-35 1.0000000180025095e-35 160.50000000000003 1.0000000180025095e-35 inf 1.0000000180025095e-35 3.6430000000000002 164.50000000000003 169.50000000000003\ndecision_type=2 2 10 10 8 10 2 10 2 8 8 8 10 10\nleft_child=1 2 3 4 7 8 -4 -1 -2 -10 -6 12 -12 -7\nright_child=5 -3 6 -5 10 13 -8 -9 9 -11 11 -13 -14 -15\nleaf_value=-0.0036229332572516116 0.0042986754116258047 0.004259916765009311 0.0023021338002613247 0.00068995565399475735 0.0059313104824652001 0.010188499671884448 0.0092000939689071883 0.0034214582833389088 0.0033434563233615462 0.0083807099422856766 0.00018325838559345975 -0.0017629113275504094 0.010363469540953315 0.0011668363673286932\nleaf_weight=1485 854 421 241 1054 41 255 92 64 145 419 412 5481 20 28\nleaf_count=1485 854 421 241 1054 41 255 92 64 145 419 412 5481 20 28\ninternal_value=0 -0.00110715 -0.00136233 -0.00158159 -0.0019014 0.00607844 0.00424469 -0.00332663 0.00542171 0.00710273 -0.00152928 -0.00158285 0.000688957 0.00932075\ninternal_weight=0 9311 8890 8557 7503 1701 333 1549 1418 564 5954 5913 432 283\ninternal_count=11012 9311 8890 8557 7503 1701 333 1549 1418 564 5954 5913 432 283\nis_linear=0\nshrinkage=0.05\n\n\nTree=57\nnum_leaves=15\nnum_cat=0\nsplit_feature=2 5 4 0 0 2 5 3 1 5 3 1 0 0\nsplit_gain=30.9262 5.70416 4.66004 2.43477 1.56645 1.11397 1.22235 0.959517 1.15747 0.936744 0.875873 0.731675 0.610957 1.11057\nthreshold=3.5000000000000004 1.0000000180025095e-35 1.0000000180025095e-35 3.8050000000000002 3.0050000000000003 2.5000000000000004 1.0000000180025095e-35 1.0000000180025095e-35 168.50000000000003 inf 5.5000000000000009 163.50000000000003 3.7705000000000006 3.5205000000000006\ndecision_type=8 10 2 10 8 10 8 10 10 8 10 10 10 10\nleft_child=5 2 3 4 -2 6 -1 8 12 -7 -3 -5 13 -6\nright_child=1 10 -4 11 7 9 -8 -9 -10 -11 -12 -13 -14 -15\nleaf_value=-6.2128452179458087e-05 -0.0053681963932875401 0.0035325811143486203 0.003938852423093814 0.00016399397110037465 -0.0021154629180568864 0.0085346856679871172 0.0075356846618127478 0.001025741879469833 0.0038625630490440898 0.0020758227178827903 0.0093706076207888019 0.0041008512572370762 -0.0046268314402141651 -0.00032329917041057946\nleaf_weight=54 310 314 400 919 5681 76 1198 299 86 224 83 135 205 1028\nleaf_count=54 310 314 400 919 5681 76 1198 299 86 224 83 135 205 1028\ninternal_value=0 -0.00107004 -0.00132762 -0.00157179 -0.00188392 0.00654288 0.0072042 -0.00173453 -0.00185328 0.0037516 0.00478617 0.000676389 -0.00192565 -0.00184169\ninternal_weight=0 9460 9063 8663 7609 1552 1252 7299 7000 300 397 1054 6914 6709\ninternal_count=11012 9460 9063 8663 7609 1552 1252 7299 7000 300 397 1054 6914 6709\nis_linear=0\nshrinkage=0.05\n\n\nTree=58\nnum_leaves=15\nnum_cat=0\nsplit_feature=2 5 4 0 0 2 5 11 1 5 1 0 0 11\nsplit_gain=30.505 5.60314 4.58881 2.38158 1.53291 1.10384 1.19538 0.945165 1.13149 0.922024 0.722355 0.863858 1.12715 0.614393\nthreshold=3.5000000000000004 1.0000000180025095e-35 1.0000000180025095e-35 3.8050000000000002 3.0050000000000003 2.5000000000000004 1.0000000180025095e-35 1.0000000180025095e-35 168.50000000000003 inf 161.50000000000003 3.8450000000000002 3.8750000000000004 1.0000000180025095e-35\ndecision_type=8 10 2 10 8 8 8 2 10 8 8 10 8 2\nleft_child=5 2 3 4 -2 6 -1 8 -6 -7 -5 -12 -13 -3\nright_child=1 13 -4 10 7 9 -8 -9 -10 -11 11 12 -14 -15\nleaf_value=-2.8291102031766029e-05 -0.0053157320190631296 0.0033542959280825238 0.0039081943705472624 -0.0031416733610015891 -0.0019104685409139571 0.008465294422963919 0.0074844387319306987 0.0010184201352528618 0.0038121685736678314 0.0020570356429840658 0.005222382932590819 -0.0039458714652562104 0.0013048009307116619 0.0076699246785102322\nleaf_weight=54 310 272 400 110 6914 76 1198 299 86 224 112 118 714 125\nleaf_count=54 310 272 400 110 6914 76 1198 299 86 224 112 118 714 125\ninternal_value=0 -0.00106255 -0.00131784 -0.00156015 -0.00186884 0.00649836 0.00715665 -0.00172106 -0.00183891 0.0037198 0.000663296 0.00111482 0.000550269 0.00474154\ninternal_weight=0 9460 9063 8663 7609 1552 1252 7299 7000 300 1054 944 832 397\ninternal_count=11012 9460 9063 8663 7609 1552 1252 7299 7000 300 1054 944 832 397\nis_linear=0\nshrinkage=0.05\n\n\nTree=59\nnum_leaves=15\nnum_cat=0\nsplit_feature=2 5 4 1 2 5 3 5 3 3 6 4 6 4\nsplit_gain=30.0889 5.50461 4.51954 1.6272 1.09371 1.16904 1.06649 0.907535 0.85201 0.54899 0.521248 0.497851 0.449166 0.775202\nthreshold=3.5000000000000004 1.0000000180025095e-35 1.0000000180025095e-35 161.50000000000003 2.5000000000000004 1.0000000180025095e-35 1.0000000180025095e-35 inf 5.5000000000000009 8.0000000000000018 1.0000000180025095e-35 1.0000000180025095e-35 inf 1.0000000180025095e-35\ndecision_type=8 10 2 10 8 8 10 8 10 10 8 2 8 2\nleft_child=4 2 3 6 5 -1 10 -6 11 -4 -2 -3 -7 -14\nright_child=1 8 9 -5 7 12 -8 -9 -10 -11 -12 -13 13 -15\nleaf_value=0 0.0045102396194871058 0.0026214232707796278 0.0043217911506023424 0.0013467713793801196 0.00839648608257129 0.0053692083225952711 0.0012175326399826395 0.0020384315999442655 0.0092193579872390831 -0.0037314837357497765 -0.0018474663275644136 0.0084598335952497123 0.006660370933777607 0.0096355636875796215\nleaf_weight=54 31 271 379 457 76 237 297 224 83 21 7878 43 555 406\nleaf_count=54 31 271 379 457 76 237 297 224 83 21 7878 43 555 406\ninternal_value=0 -0.0010551 -0.00130814 -0.00154862 0.00645406 0.00710932 -0.00171062 0.00368829 0.0046977 0.00387827 -0.00182135 0.00346114 0.00743345 0.00793123\ninternal_weight=0 9460 9063 8663 1552 1252 8206 300 397 400 7909 314 1198 961\ninternal_count=11012 9460 9063 8663 1552 1252 8206 300 397 400 7909 314 1198 961\nis_linear=0\nshrinkage=0.05\n\n\nTree=60\nnum_leaves=15\nnum_cat=0\nsplit_feature=10 4 5 0 0 3 5 1 4 3 0 3 3 0\nsplit_gain=28.0998 4.80502 4.05483 2.32229 1.52141 1.51755 1.32749 1.19701 1.00876 1.43211 0.918619 0.794638 0.713683 0.708164\nthreshold=1.0000000180025095e-35 1.0000000180025095e-35 1.0000000180025095e-35 3.8050000000000002 3.5205000000000006 5.5000000000000009 1.0000000180025095e-35 160.50000000000003 1.0000000180025095e-35 4.5000000000000009 3.5450000000000004 4.5000000000000009 8.0000000000000018 2.6050000000000004\ndecision_type=2 2 10 10 8 10 10 10 2 8 8 8 10 8\nleft_child=1 2 3 4 7 -4 8 13 9 -2 -6 -8 -3 -1\nright_child=6 12 5 -5 10 -7 11 -9 -10 -11 -12 -13 -14 -15\nleaf_value=-0.0095813934167111228 0.008249943636761025 0.0046587579453622411 0.0023236832751534976 0.00065885077501895407 0.005618118425703234 0.01070757933507996 0.0037456185449179663 0.0033738352451978572 0.0069295662456169459 0.0031153709617057308 -0.0015331560098258736 0.010455943167959813 -0.0038338068549025849 -0.0033250380005370966\nleaf_weight=47 172 396 265 1054 44 68 60 64 564 682 5910 223 25 1438\nleaf_count=47 172 396 265 1054 44 68 60 64 564 682 5910 223 25 1438\ninternal_value=0 -0.00107583 -0.00132359 -0.00153481 -0.00184368 0.00407761 0.0059112 -0.00324215 0.00527149 0.00416379 -0.00147853 0.00906906 0.00413471 -0.00353273\ninternal_weight=0 9311 8890 8557 7503 333 1701 1549 1418 854 5954 283 421 1485\ninternal_count=11012 9311 8890 8557 7503 333 1701 1549 1418 854 5954 283 421 1485\nis_linear=0\nshrinkage=0.05\n\n\nTree=61\nnum_leaves=15\nnum_cat=0\nsplit_feature=2 5 0 3 0 1 2 5 5 0 3 0 0 1\nsplit_gain=29.2925 5.32085 2.71973 1.96113 1.68903 1.21754 1.09268 1.14316 0.886106 0.840114 0.819797 0.733047 0.694253 0.656987\nthreshold=3.5000000000000004 1.0000000180025095e-35 3.5205000000000006 5.5000000000000009 3.9545000000000008 160.50000000000003 2.5000000000000004 1.0000000180025095e-35 inf 3.5450000000000004 5.5000000000000009 3.9650000000000003 2.6050000000000004 163.50000000000003\ndecision_type=8 10 8 8 10 10 10 8 8 8 10 8 10 10\nleft_child=6 2 5 -4 9 12 7 -1 -8 -5 -3 -6 -2 -13\nright_child=1 10 3 4 11 -7 8 -9 -10 -11 -12 13 -14 -15\nleaf_value=-1.1567239896363335e-06 -0.0094807573191150653 0.0034017465928124282 0.0028945899296606756 0.0055485940516162473 0.0086035581960057003 0.0034239732183909267 0.0082568849786319991 0.0073437595909148865 0.0019746930697606946 -0.0012879936847344034 0.0090514098813794658 0.00045680097372223386 -0.0032858151884095771 0.0068385097231491408\nleaf_weight=54 47 314 325 44 40 65 76 1198 224 6788 83 268 1439 47\nleaf_count=54 47 314 325 44 40 65 76 1198 224 6788 83 268 1439 47\ninternal_value=0 -0.00104067 -0.00128946 -0.000894715 -0.00106714 -0.00319631 0.00636844 0.00702323 0.00360494 -0.00124243 0.00461525 0.00228616 -0.00349136 0.00144344\ninternal_weight=0 9460 9063 7512 7187 1551 1552 1252 300 6832 397 355 1486 315\ninternal_count=11012 9460 9063 7512 7187 1551 1552 1252 300 6832 397 355 1486 315\nis_linear=0\nshrinkage=0.05\n\n\nTree=62\nnum_leaves=15\nnum_cat=0\nsplit_feature=2 5 4 0 0 2 5 3 1 5 3 1 0 0\nsplit_gain=28.8974 5.22513 4.36455 2.24333 1.45668 1.08339 1.118 0.898981 1.08676 0.872699 0.806372 0.699912 0.600969 1.05517\nthreshold=3.5000000000000004 1.0000000180025095e-35 1.0000000180025095e-35 3.8050000000000002 3.0050000000000003 2.5000000000000004 1.0000000180025095e-35 1.0000000180025095e-35 168.50000000000003 inf 5.5000000000000009 163.50000000000003 3.7705000000000006 3.5205000000000006\ndecision_type=8 10 2 10 8 10 8 10 10 8 10 10 10 10\nleft_child=5 2 3 4 -2 6 -1 8 12 -7 -3 -5 13 -6\nright_child=1 10 -4 11 7 9 -8 -9 -10 -11 -12 -13 -14 -15\nleaf_value=0 -0.0051761605114622701 0.0033676624949019679 0.0038166834248070563 0.0001403160165509727 -0.0020405025958720462 0.0081905815198360238 0.0072944987584169412 0.00099965126821858433 0.0037512062865922009 0.0019558082706388597 0.0089712248239009612 0.0039906830929055601 -0.0045354193085174587 -0.00029356148292561862\nleaf_weight=54 310 314 400 919 5681 76 1198 299 86 224 83 135 205 1028\nleaf_count=54 310 314 400 919 5681 76 1198 299 86 224 83 135 205 1028\ninternal_value=0 -0.00103344 -0.00127998 -0.0015163 -0.00181591 0.00632555 0.00697753 -0.00167182 -0.00178677 0.00357386 0.00457135 0.000641539 -0.00185691 -0.00177365\ninternal_weight=0 9460 9063 8663 7609 1552 1252 7299 7000 300 397 1054 6914 6709\ninternal_count=11012 9460 9063 8663 7609 1552 1252 7299 7000 300 397 1054 6914 6709\nis_linear=0\nshrinkage=0.05\n\n\nTree=63\nnum_leaves=15\nnum_cat=0\nsplit_feature=2 5 4 1 2 5 3 5 3 3 6 4 1 6\nsplit_gain=28.5065 5.13345 4.29804 1.52478 1.0734 1.09327 1.01738 0.859276 0.793254 0.528716 0.513342 0.489844 0.450359 0.428684\nthreshold=3.5000000000000004 1.0000000180025095e-35 1.0000000180025095e-35 161.50000000000003 2.5000000000000004 1.0000000180025095e-35 1.0000000180025095e-35 inf 5.5000000000000009 8.0000000000000018 1.0000000180025095e-35 1.0000000180025095e-35 154.50000000000003 inf\ndecision_type=8 10 2 10 8 8 10 8 10 10 8 2 8 8\nleft_child=4 2 3 6 5 -1 10 -6 11 -4 -2 -3 -12 -7\nright_child=1 8 9 -5 7 13 -8 -9 -10 -11 12 -13 -14 -15\nleaf_value=0 0.0045135168926849602 0.0025027772115321454 0.0042224523124890683 0.0012974344185638887 0.0081250199126235434 0.0052274159816736339 0.0011977729320793518 0.0019380554744977488 0.0088932724135013935 -0.0036786950857796864 -0.0046320604588810091 0.0082909329333708554 -0.0017438738222550162 0.0077316581432626506\nleaf_weight=54 31 271 379 457 76 237 297 224 83 21 139 43 7739 961\nleaf_count=54 31 271 379 457 76 237 297 224 83 21 139 43 7739 961\ninternal_value=0 -0.00102624 -0.00127062 -0.00150513 0.00628279 0.00693175 -0.00166196 0.00354382 0.00452912 0.00378703 -0.00177012 0.0033351 -0.00179605 0.00724519\ninternal_weight=0 9460 9063 8663 1552 1252 8206 300 397 400 7909 314 7878 1198\ninternal_count=11012 9460 9063 8663 1552 1252 8206 300 397 400 7909 314 7878 1198\nis_linear=0\nshrinkage=0.05\n\n\nTree=64\nnum_leaves=15\nnum_cat=0\nsplit_feature=2 5 4 0 0 1 2 5 0 12 11 1 0 0\nsplit_gain=28.116 5.04554 4.23542 2.19039 1.4398 1.13073 1.06286 1.06916 0.874227 0.845827 0.766193 0.690912 0.847266 1.09608\nthreshold=3.5000000000000004 1.0000000180025095e-35 1.0000000180025095e-35 3.8050000000000002 3.5205000000000006 160.50000000000003 2.5000000000000004 1.0000000180025095e-35 3.5450000000000004 1.0000000180025095e-35 1.0000000180025095e-35 161.50000000000003 3.8450000000000002 3.8750000000000004\ndecision_type=8 10 2 10 8 10 10 8 8 2 2 8 10 8\nleft_child=6 2 3 4 5 -2 7 -1 -6 -8 -10 -5 -13 -14\nright_child=1 -3 -4 11 8 -7 9 -9 10 -11 -12 12 13 -15\nleaf_value=0 -0.0034355763059545834 0.0044885762184343351 0.0037593753505140923 -0.0030829500942320099 0.0054825252383792324 0.0032760051713041035 0.0019209283300728364 0.0071955258542523715 -0.0016219646803396115 0.0080596323011649495 0.00096579976825053636 0.0051475281972594416 -0.003913014792013776 0.0012648907573763078\nleaf_weight=54 1485 397 400 110 44 64 224 1198 5718 76 298 112 118 714\nleaf_count=54 1485 397 400 110 44 64 224 1198 5718 76 298 112 118 714\ninternal_value=0 -0.00101899 -0.00126127 -0.00149407 -0.00179013 -0.00315311 0.00623981 0.00688557 -0.00144044 0.00351429 -0.00149281 0.000638115 0.00107981 0.000520706\ninternal_weight=0 9460 9063 8663 7609 1549 1552 1252 6060 300 6016 1054 944 832\ninternal_count=11012 9460 9063 8663 7609 1549 1552 1252 6060 300 6016 1054 944 832\nis_linear=0\nshrinkage=0.05\n\n\nTree=65\nnum_leaves=15\nnum_cat=0\nsplit_feature=2 4 11 0 0 12 1 2 0 1 12 6 0 0\nsplit_gain=27.7374 4.88715 2.95672 2.10191 1.67281 1.65213 1.10859 1.05316 0.847016 0.935543 0.832871 0.801207 0.7966 0.711746\nthreshold=3.5000000000000004 1.0000000180025095e-35 1.0000000180025095e-35 3.5205000000000006 3.9545000000000008 1.0000000180025095e-35 160.50000000000003 2.5000000000000004 3.9260000000000006 155.50000000000003 1.0000000180025095e-35 inf 3.9350000000000005 3.9650000000000003\ndecision_type=8 2 2 8 10 2 10 8 8 10 2 8 8 10\nleft_child=7 2 3 6 8 -4 -2 11 9 -5 -9 -1 -10 -6\nright_child=1 -3 5 4 13 -7 -8 10 12 -11 -12 -13 -14 -15\nleaf_value=0.004332430148483237 -0.0034123666688903975 0.0040474329697965166 0.00091643776903764301 -0.00079410961245799316 0.0084650776397048998 0.0081257165019899581 0.0032328537397242883 0.0019034856043193367 -0.0085890546113946992 0.0025461959025192184 0.0079953139970688116 0.0075071725805287764 -0.0015571950734741295 0.0014094760148041189\nleaf_weight=266 1484 453 288 1591 40 110 64 224 40 240 76 986 4835 315\nleaf_count=266 1484 453 288 1591 40 110 64 224 40 240 76 986 4835 315\ninternal_value=0 -0.00101192 -0.00126735 -0.00146261 -0.00109542 0.00293685 -0.00313249 0.00619785 -0.00127305 -0.000352396 0.0034848 0.00684065 -0.00161767 0.00224006\ninternal_weight=0 9460 9007 8609 7061 398 1548 1552 6706 1831 300 1252 